{"learner":{"attributes":{},"feature_names":["Dst_Port","Protocol","Timestamp","Flow_Duration","Tot_Fwd_Pkts","Tot_Bwd_Pkts","TotLen_Fwd_Pkts","TotLen_Bwd_Pkts","Fwd_Pkt_Len_Max","Fwd_Pkt_Len_Min","Fwd_Pkt_Len_Mean","Fwd_Pkt_Len_Std","Bwd_Pkt_Len_Max","Bwd_Pkt_Len_Min","Bwd_Pkt_Len_Mean","Bwd_Pkt_Len_Std","Flow_Byts/s","Flow_Pkts/s","Flow_IAT_Mean","Flow_IAT_Std","Flow_IAT_Max","Flow_IAT_Min","Fwd_IAT_Tot","Fwd_IAT_Mean","Fwd_IAT_Std","Fwd_IAT_Max","Fwd_IAT_Min","Bwd_IAT_Tot","Bwd_IAT_Mean","Bwd_IAT_Std","Bwd_IAT_Max","Bwd_IAT_Min","Fwd_PSH_Flags","Bwd_PSH_Flags","Fwd_URG_Flags","Bwd_URG_Flags","Fwd_Header_Len","Bwd_Header_Len","Fwd_Pkts/s","Bwd_Pkts/s","Pkt_Len_Min","Pkt_Len_Max","Pkt_Len_Mean","Pkt_Len_Std","Pkt_Len_Var","FIN_Flag_Cnt","SYN_Flag_Cnt","RST_Flag_Cnt","PSH_Flag_Cnt","ACK_Flag_Cnt","URG_Flag_Cnt","CWE_Flag_Count","ECE_Flag_Cnt","Down/Up_Ratio","Pkt_Size_Avg","Fwd_Seg_Size_Avg","Bwd_Seg_Size_Avg","Fwd_Byts/b_Avg","Fwd_Pkts/b_Avg","Fwd_Blk_Rate_Avg","Bwd_Byts/b_Avg","Bwd_Pkts/b_Avg","Bwd_Blk_Rate_Avg","Subflow_Fwd_Pkts","Subflow_Fwd_Byts","Subflow_Bwd_Pkts","Subflow_Bwd_Byts","Init_Fwd_Win_Byts","Init_Bwd_Win_Byts","Fwd_Act_Data_Pkts","Fwd_Seg_Size_Min","Active_Mean","Active_Std","Active_Max","Active_Min","Idle_Mean","Idle_Std","Idle_Max","Idle_Min"],"feature_types":["float","float","float","float","float","float","float","float","float","float","float","float","float","float","float","float","float","float","float","float","float","float","float","float","float","float","float","float","float","float","float","float","float","float","float","float","float","float","float","float","float","float","float","float","float","float","float","float","float","float","float","float","float","float","float","float","float","float","float","float","float","float","float","float","float","float","float","float","float","float","float","float","float","float","float","float","float","float","float"],"gradient_booster":{"model":{"cats":{"enc":[],"feature_segments":[],"sorted_idx":[]},"gbtree_model_param":{"num_parallel_tree":"1","num_trees":"1500"},"iteration_indptr":[0,15,30,45,60,75,90,105,120,135,150,165,180,195,210,225,240,255,270,285,300,315,330,345,360,375,390,405,420,435,450,465,480,495,510,525,540,555,570,585,600,615,630,645,660,675,690,705,720,735,750,765,780,795,810,825,840,855,870,885,900,915,930,945,960,975,990,1005,1020,1035,1050,1065,1080,1095,1110,1125,1140,1155,1170,1185,1200,1215,1230,1245,1260,1275,1290,1305,1320,1335,1350,1365,1380,1395,1410,1425,1440,1455,1470,1485,1500],"tree_info":[0,1,2,3,4,5,6,7,8,9,10,11,12,13,14,0,1,2,3,4,5,6,7,8,9,10,11,12,13,14,0,1,2,3,4,5,6,7,8,9,10,11,12,13,14,0,1,2,3,4,5,6,7,8,9,10,11,12,13,14,0,1,2,3,4,5,6,7,8,9,10,11,12,13,14,0,1,2,3,4,5,6,7,8,9,10,11,12,13,14,0,1,2,3,4,5,6,7,8,9,10,11,12,13,14,0,1,2,3,4,5,6,7,8,9,10,11,12,13,14,0,1,2,3,4,5,6,7,8,9,10,11,12,13,14,0,1,2,3,4,5,6,7,8,9,10,11,12,13,14,0,1,2,3,4,5,6,7,8,9,10,11,12,13,14,0,1,2,3,4,5,6,7,8,9,10,11,12,13,14,0,1,2,3,4,5,6,7,8,9,10,11,12,13,14,0,1,2,3,4,5,6,7,8,9,10,11,12,13,14,0,1,2,3,4,5,6,7,8,9,10,11,12,13,14,0,1,2,3,4,5,6,7,8,9,10,11,12,13,14,0,1,2,3,4,5,6,7,8,9,10,11,12,13,14,0,1,2,3,4,5,6,7,8,9,10,11,12,13,14,0,1,2,3,4,5,6,7,8,9,10,11,12,13,14,0,1,2,3,4,5,6,7,8,9,10,11,12,13,14,0,1,2,3,4,5,6,7,8,9,10,11,12,13,14,0,1,2,3,4,5,6,7,8,9,10,11,12,13,14,0,1,2,3,4,5,6,7,8,9,10,11,12,13,14,0,1,2,3,4,5,6,7,8,9,10,11,12,13,14,0,1,2,3,4,5,6,7,8,9,10,11,12,13,14,0,1,2,3,4,5,6,7,8,9,10,11,12,13,14,0,1,2,3,4,5,6,7,8,9,10,11,12,13,14,0,1,2,3,4,5,6,7,8,9,10,11,12,13,14,0,1,2,3,4,5,6,7,8,9,10,11,12,13,14,0,1,2,3,4,5,6,7,8,9,10,11,12,13,14,0,1,2,3,4,5,6,7,8,9,10,11,12,13,14,0,1,2,3,4,5,6,7,8,9,10,11,12,13,14,0,1,2,3,4,5,6,7,8,9,10,11,12,13,14,0,1,2,3,4,5,6,7,8,9,10,11,12,13,14,0,1,2,3,4,5,6,7,8,9,10,11,12,13,14,0,1,2,3,4,5,6,7,8,9,10,11,12,13,14,0,1,2,3,4,5,6,7,8,9,10,11,12,13,14,0,1,2,3,4,5,6,7,8,9,10,11,12,13,14,0,1,2,3,4,5,6,7,8,9,10,11,12,13,14,0,1,2,3,4,5,6,7,8,9,10,11,12,13,14,0,1,2,3,4,5,6,7,8,9,10,11,12,13,14,0,1,2,3,4,5,6,7,8,9,10,11,12,13,14,0,1,2,3,4,5,6,7,8,9,10,11,12,13,14,0,1,2,3,4,5,6,7,8,9,10,11,12,13,14,0,1,2,3,4,5,6,7,8,9,10,11,12,13,14,0,1,2,3,4,5,6,7,8,9,10,11,12,13,14,0,1,2,3,4,5,6,7,8,9,10,11,12,13,14,0,1,2,3,4,5,6,7,8,9,10,11,12,13,14,0,1,2,3,4,5,6,7,8,9,10,11,12,13,14,0,1,2,3,4,5,6,7,8,9,10,11,12,13,14,0,1,2,3,4,5,6,7,8,9,10,11,12,13,14,0,1,2,3,4,5,6,7,8,9,10,11,12,13,14,0,1,2,3,4,5,6,7,8,9,10,11,12,13,14,0,1,2,3,4,5,6,7,8,9,10,11,12,13,14,0,1,2,3,4,5,6,7,8,9,10,11,12,13,14,0,1,2,3,4,5,6,7,8,9,10,11,12,13,14,0,1,2,3,4,5,6,7,8,9,10,11,12,13,14,0,1,2,3,4,5,6,7,8,9,10,11,12,13,14,0,1,2,3,4,5,6,7,8,9,10,11,12,13,14,0,1,2,3,4,5,6,7,8,9,10,11,12,13,14,0,1,2,3,4,5,6,7,8,9,10,11,12,13,14,0,1,2,3,4,5,6,7,8,9,10,11,12,13,14,0,1,2,3,4,5,6,7,8,9,10,11,12,13,14,0,1,2,3,4,5,6,7,8,9,10,11,12,13,14,0,1,2,3,4,5,6,7,8,9,10,11,12,13,14,0,1,2,3,4,5,6,7,8,9,10,11,12,13,14,0,1,2,3,4,5,6,7,8,9,10,11,12,13,14,0,1,2,3,4,5,6,7,8,9,10,11,12,13,14,0,1,2,3,4,5,6,7,8,9,10,11,12,13,14,0,1,2,3,4,5,6,7,8,9,10,11,12,13,14,0,1,2,3,4,5,6,7,8,9,10,11,12,13,14,0,1,2,3,4,5,6,7,8,9,10,11,12,13,14,0,1,2,3,4,5,6,7,8,9,10,11,12,13,14,0,1,2,3,4,5,6,7,8,9,10,11,12,13,14,0,1,2,3,4,5,6,7,8,9,10,11,12,13,14,0,1,2,3,4,5,6,7,8,9,10,11,12,13,14,0,1,2,3,4,5,6,7,8,9,10,11,12,13,14,0,1,2,3,4,5,6,7,8,9,10,11,12,13,14,0,1,2,3,4,5,6,7,8,9,10,11,12,13,14,0,1,2,3,4,5,6,7,8,9,10,11,12,13,14,0,1,2,3,4,5,6,7,8,9,10,11,12,13,14,0,1,2,3,4,5,6,7,8,9,10,11,12,13,14,0,1,2,3,4,5,6,7,8,9,10,11,12,13,14,0,1,2,3,4,5,6,7,8,9,10,11,12,13,14,0,1,2,3,4,5,6,7,8,9,10,11,12,13,14,0,1,2,3,4,5,6,7,8,9,10,11,12,13,14,0,1,2,3,4,5,6,7,8,9,10,11,12,13,14,0,1,2,3,4,5,6,7,8,9,10,11,12,13,14,0,1,2,3,4,5,6,7,8,9,10,11,12,13,14,0,1,2,3,4,5,6,7,8,9,10,11,12,13,14,0,1,2,3,4,5,6,7,8,9,10,11,12,13,14,0,1,2,3,4,5,6,7,8,9,10,11,12,13,14,0,1,2,3,4,5,6,7,8,9,10,11,12,13,14,0,1,2,3,4,5,6,7,8,9,10,11,12,13,14,0,1,2,3,4,5,6,7,8,9,10,11,12,13,14,0,1,2,3,4,5,6,7,8,9,10,11,12,13,14,0,1,2,3,4,5,6,7,8,9,10,11,12,13,14,0,1,2,3,4,5,6,7,8,9,10,11,12,13,14,0,1,2,3,4,5,6,7,8,9,10,11,12,13,14,0,1,2,3,4,5,6,7,8,9,10,11,12,13,14],"trees":[{"base_weights":[2.9298408E0,1.3609841E0,3.2965534E0,2.1220248E0,-4.3185294E-1,3.3856132E0,1.7545309E0,3.238466E0,1.029681E0,-5.659215E-1,3.0705254E0,3.431319E0,2.677626E0,-5.418019E-1,3.4670465E0,3.3392334E0,2.047565E0,3.4022589E0,-8.3436675E-2,-5.7421017E-1,3.230625E0,1.4613748E0,3.2566886E0,3.4324799E0,3.9903733E-1,3.4332514E0,-5.1025534E-1,-5.6913364E-1,2.5254009E0,3.4674394E-1,1.3157049E-1,3.2574396E0,3.4370728E0,1.575799E0,2.320721E0,3.4169848E0,2.4598362E0,3.2603111E0,-5.468249E-1,-5.785734E-1,2.4912205E0,1.9236311E-1,3.3873394E-1,2.80292E-1,1.3611735E0,3.4079514E0,1.6142105E0,3.4714326E-1,3.348688E0,-5.772233E-2,3.347082E-1,3.435595E0,1.6113508E0,-5.839624E-2,3.4188995E-1,-5.8177835E-1,2.7562096E0,-5.410985E-2,3.2428035E-1,3.3585972E-1,2.847309E-1,3.4471047E-1,3.218702E-1,1.4463167E-1,2.0775644E-1,2.071301E-1,2.3626323E-1,3.4376237E-1,2.9036865E-1,3.2364625E-1,-7.861836E-3,3.2885367E-1,-4.937095E-2,-5.6903403E-2,3.1452215E-1,-5.796316E-2,2.2245412E-1,3.0876914E-1,1.6939862E-2,1.6282775E-1,1.00619756E-1,3.431171E-1,2.7742368E-1,2.5528848E-1,1.3396305E-1,3.3588898E-1,-4.3590944E-2,3.3403575E-1,3.4713045E-1,9.417036E-2,2.3556207E-1,2.3037122E-1,-5.8284756E-2,-2.9282937E-2,3.3280307E-1],"categories":[],"categories_nodes":[],"categories_segments":[],"categories_sizes":[],"default_left":[0,0,0,0,0,0,0,0,0,0,0,0,0,0,0,0,0,0,0,0,0,0,0,0,0,0,0,0,0,0,0,0,0,0,0,0,0,0,0,0,0,0,0,0,0,0,0,0,0,0,0,0,0,0,0,0,0,0,0,0,0,0,0,0,0,0,0,0,0,0,0,0,0,0,0,0,0,0,0,0,0,0,0,0,0,0,0,0,0,0,0,0,0,0,0],"id":0,"left_children":[1,3,5,7,9,11,13,15,17,19,21,23,25,27,29,31,33,35,37,39,41,43,45,47,49,51,53,55,57,-1,-1,59,61,63,65,67,69,71,73,75,77,-1,-1,-1,79,81,83,-1,85,-1,-1,87,89,-1,-1,91,93,-1,-1,-1,-1,-1,-1,-1,-1,-1,-1,-1,-1,-1,-1,-1,-1,-1,-1,-1,-1,-1,-1,-1,-1,-1,-1,-1,-1,-1,-1,-1,-1,-1,-1,-1,-1,-1,-1],"loss_changes":[2.3042475E5,1.0353986E5,4.4577E4,6.496358E4,1.0620371E4,9.9225E3,6.971703E4,3.154625E3,7.111586E4,6.872739E2,2.4504541E2,1.01325E3,4.4846094E4,6.3637573E2,4.0234375E0,1.831875E2,2.6152832E2,1.109375E2,2.8402926E4,2.9214502E2,3.2337341E0,8.052216E0,1.7998975E2,9.2925E2,3.2272174E2,5.871875E1,1.0353218E3,3.172954E2,1.4932275E2,0E0,0E0,5.400625E2,1.3078125E1,4.62229E1,8.70752E0,7.96875E1,2.6811298E2,2.3803516E2,1.321916E3,6.566846E1,4.2520645E1,0E0,0E0,0E0,6.334839E0,5.2783203E-1,1.3297165E1,0E0,3.5334375E3,0E0,0E0,3.9515625E1,8.356815E0,0E0,0E0,2.4419434E1,5.0865112E1,0E0,0E0,0E0,0E0,0E0,0E0,0E0,0E0,0E0,0E0,0E0,0E0,0E0,0E0,0E0,0E0,0E0,0E0,0E0,0E0,0E0,0E0,0E0,0E0,0E0,0E0,0E0,0E0,0E0,0E0,0E0,0E0,0E0,0E0,0E0,0E0,0E0,0E0],"parents":[2147483647,0,0,1,1,2,2,3,3,4,4,5,5,6,6,7,7,8,8,9,9,10,10,11,11,12,12,13,13,14,14,15,15,16,16,17,17,18,18,19,19,20,20,21,21,22,22,23,23,24,24,25,25,26,26,27,27,28,28,31,31,32,32,33,33,34,34,35,35,36,36,37,37,38,38,39,39,40,40,44,44,45,45,46,46,48,48,51,51,52,52,55,55,56,56],"right_children":[2,4,6,8,10,12,14,16,18,20,22,24,26,28,30,32,34,36,38,40,42,44,46,48,50,52,54,56,58,-1,-1,60,62,64,66,68,70,72,74,76,78,-1,-1,-1,80,82,84,-1,86,-1,-1,88,90,-1,-1,92,94,-1,-1,-1,-1,-1,-1,-1,-1,-1,-1,-1,-1,-1,-1,-1,-1,-1,-1,-1,-1,-1,-1,-1,-1,-1,-1,-1,-1,-1,-1,-1,-1,-1,-1,-1,-1,-1,-1],"split_conditions":[1E0,3.2E1,2.6883E4,2.052E3,1.23E2,8.08E3,1.23E2,2.4E1,4.388371E1,2.92E4,1.39E2,8.6334264E7,1E0,6.43E2,8.58E2,2.57E2,8.547009E3,3.30371E1,4.02E2,8.1709856E5,2.1E1,2.102528E5,3.1088E4,9E-1,1.7E1,2.72E2,3.66E2,2.53E2,7E0,3.4674394E-1,1.3157049E-1,2.56E2,6.6666664E4,3.12E2,4.761905E3,1E0,3.2654E4,3E0,9.292E3,1E0,3.1E7,1.9236311E-1,3.3873394E-1,2.80292E-1,1.2E7,1E0,4.970803E0,3.4714326E-1,1E0,-5.772233E-2,3.347082E-1,2.4E1,2.3190275E5,-5.839624E-2,3.4188995E-1,4E1,2.92E4,-5.410985E-2,3.2428035E-1,3.3585972E-1,2.847309E-1,3.4471047E-1,3.218702E-1,1.4463167E-1,2.0775644E-1,2.071301E-1,2.3626323E-1,3.4376237E-1,2.9036865E-1,3.2364625E-1,-7.861836E-3,3.2885367E-1,-4.937095E-2,-5.6903403E-2,3.1452215E-1,-5.796316E-2,2.2245412E-1,3.0876914E-1,1.6939862E-2,1.6282775E-1,1.00619756E-1,3.431171E-1,2.7742368E-1,2.5528848E-1,1.3396305E-1,3.3588898E-1,-4.3590944E-2,3.3403575E-1,3.4713045E-1,9.417036E-2,2.3556207E-1,2.3037122E-1,-5.8284756E-2,-2.9282937E-2,3.3280307E-1],"split_indices":[8,70,67,67,0,0,0,70,38,67,0,23,47,8,11,67,17,38,21,19,0,22,67,55,1,40,7,68,4,0,0,67,38,21,39,47,67,53,0,32,27,0,0,0,20,47,38,0,50,0,0,70,23,0,0,6,67,0,0,0,0,0,0,0,0,0,0,0,0,0,0,0,0,0,0,0,0,0,0,0,0,0,0,0,0,0,0,0,0,0,0,0,0,0,0],"split_type":[0,0,0,0,0,0,0,0,0,0,0,0,0,0,0,0,0,0,0,0,0,0,0,0,0,0,0,0,0,0,0,0,0,0,0,0,0,0,0,0,0,0,0,0,0,0,0,0,0,0,0,0,0,0,0,0,0,0,0,0,0,0,0,0,0,0,0,0,0,0,0,0,0,0,0,0,0,0,0,0,0,0,0,0,0,0,0,0,0,0,0,0,0,0,0],"sum_hessian":[4.0052253E5,7.5883836E4,3.246387E5,5.327076E4,2.261307E4,3.0691178E5,1.7726922E4,2.634382E4,2.6926943E4,2.1780178E4,8.328912E2,2.8829622E5,1.8615537E4,7.572948E3,1.0153975E4,2.4286988E4,2.056832E3,8.598159E3,1.8328783E4,2.1733578E4,4.6600483E1,8.728345E1,7.456077E2,2.8818578E5,1.104604E2,1.5048504E4,3.5670327E3,7.5068696E3,6.6078995E1,1.0151509E4,2.465634E0,1.3246865E4,1.1040123E4,7.5670306E2,1.3001288E3,8.463289E3,1.3487018E2,2.230166E3,1.6098618E4,2.1703498E4,3.0080736E1,6.4106483E0,4.0189835E1,4.191578E0,8.3091866E1,6.817478E2,6.385992E1,1.967036E5,9.148217E4,8.358499E1,2.6875412E1,1.5028286E4,2.0218199E1,3.5021865E3,6.4846176E1,7.4792544E3,2.76151E1,1.2574734E1,5.3504257E1,1.0620226E4,2.62664E3,1.0541079E4,4.9904434E2,6.045735E2,1.5212962E2,1.9429196E2,1.1058369E3,8.130675E3,3.3261404E2,1.030635E2,3.1806679E1,2.2136462E3,1.6519749E1,1.6003198E4,9.542004E1,2.16961E4,7.396902E0,2.3670086E1,6.4106483E0,4.536767E1,3.77242E1,6.53393E2,2.8354792E1,1.2574734E1,5.1285187E1,9.123635E4,2.4582372E2,4.1240195E3,1.0904267E4,1.1835043E1,8.383156E0,1.9725072E0,7.4772817E3,4.4381413E0,2.317696E1],"tree_param":{"num_deleted":"0","num_feature":"79","num_nodes":"95","size_leaf_vector":"1"}},{"base_weights":[-3.8104367E-1,-5.3268915E-1,7.036461E-1,-5.327921E-2,-5.097815E-1,7.741414E0,-5.1012135E-1,-5.2412236E-1,4.385841E-1,-5.2686777E-2,7.9625697E0,-5.326053E-1,1.9506172E0,-4.4721216E-1,-5.3204775E-2,-4.8201498E-2,4.2968002E-1,8.110631E-1,-5.062603E-1,-5.3275924E-2,6.5818E-2,-4.89217E-1,7.8244557E0,-5.257356E-2,2.3421903E-1,-5.2335184E-2,7.941781E-3,4.7116607E-1,-5.2848216E-2,7.9355305E-1,1.19814135E-1,2.1780784E-1,-4.136302E-2],"categories":[],"categories_nodes":[],"categories_segments":[],"categories_sizes":[],"default_left":[0,0,0,0,0,0,0,0,0,0,0,0,0,0,0,0,0,0,0,0,0,0,0,0,0,0,0,0,0,0,0,0,0],"id":1,"left_children":[1,3,5,-1,7,9,11,13,15,-1,17,19,21,23,-1,-1,-1,-1,25,-1,-1,27,29,-1,-1,-1,-1,31,-1,-1,-1,-1,-1],"loss_changes":[3.0904889E4,1.2109375E-1,1.9686448E5,0E0,1.0572037E1,6.203047E3,1.088584E3,2.1894836E-1,4.4239346E1,0E0,4.1441562E3,3.9228516E0,2.5575374E3,1.7942585E1,0E0,0E0,0E0,0E0,6.188879E-1,0E0,0E0,5.032049E0,2.9025146E1,0E0,0E0,0E0,0E0,9.223673E0,0E0,0E0,0E0,0E0,0E0],"parents":[2147483647,0,0,1,1,2,2,4,4,5,5,6,6,7,7,8,8,10,10,11,11,12,12,13,13,18,18,21,21,22,22,27,27],"right_children":[2,4,6,-1,8,10,12,14,16,-1,18,20,22,24,-1,-1,-1,-1,26,-1,-1,28,30,-1,-1,-1,-1,32,-1,-1,-1,-1,-1],"split_conditions":[8.08E3,3E1,9.292E3,-5.327921E-2,2.3241695E6,1.94E2,2E0,2.1E1,2.87E7,-5.2686777E-2,6.8568E4,2.84316E5,1.41E2,5.1389705E6,-5.3204775E-2,-4.8201498E-2,4.2968002E-1,8.110631E-1,2.5806469E5,-5.3275924E-2,6.5818E-2,1.0333333E1,6.8568E4,-5.257356E-2,2.3421903E-1,-5.2335184E-2,7.941781E-3,6.6934E4,-5.2848216E-2,7.9355305E-1,1.19814135E-1,2.1780784E-1,-4.136302E-2],"split_indices":[0,63,0,0,18,22,69,0,78,0,22,31,14,24,0,0,0,0,19,0,0,10,22,0,0,0,0,3,0,0,0,0,0],"split_type":[0,0,0,0,0,0,0,0,0,0,0,0,0,0,0,0,0,0,0,0,0,0,0,0,0,0,0,0,0,0,0,0,0],"sum_hessian":[1.8788178E5,1.6483717E5,2.3044613E4,1.6407773E5,7.594291E2,3.3889783E3,1.9655635E4,7.4855695E2,1.0872119E1,8.824922E1,3.300729E3,1.9478441E4,1.771924E2,7.5295204E1,6.732617E2,9.484189E0,1.38793E0,3.2440552E3,5.6673813E1,1.9476477E4,1.9662342E0,1.2583899E2,5.1353413E1,7.4022934E1,1.2722692E0,5.517022E1,1.503591E0,4.5107727E0,1.2132822E2,5.0312466E1,1.0409476E0,1.0409476E0,3.4698253E0],"tree_param":{"num_deleted":"0","num_feature":"79","num_nodes":"33","size_leaf_vector":"1"}},{"base_weights":[-5.31898E-1,-5.3206008E-2,-4.209691E-1,-4.8618066E-1,5.125365E-1,-3.3926532E-1,-5.296746E-2,-2.6213372E-1,-5.050019E-2,-1.8821968E-1,-2.8292766E-1,-2.949409E-2,1.9060258E-2,-2.0169306E-3,-3.603821E-2],"categories":[],"categories_nodes":[],"categories_segments":[],"categories_sizes":[],"default_left":[0,0,0,0,0,0,0,0,0,0,0,0,0,0,0],"id":2,"left_children":[1,-1,3,5,-1,7,-1,9,-1,11,13,-1,-1,-1,-1],"loss_changes":[3.09375E0,0E0,1.01744644E2,1.5592728E0,0E0,6.978545E-1,0E0,1.8060923E-2,0E0,5.888464E-1,6.8925714E-1,0E0,0E0,0E0,0E0],"parents":[2147483647,0,0,2,2,3,3,5,5,7,7,9,9,10,10],"right_children":[2,-1,4,6,-1,8,-1,10,-1,12,14,-1,-1,-1,-1],"split_conditions":[3.15E2,-5.3206008E-2,6.9284E4,3.6621117E1,5.125365E-1,4.2E7,-5.296746E-2,4.00025E6,-5.050019E-2,4.000229E6,2.136981E7,-2.949409E-2,1.9060258E-2,-2.0169306E-3,-3.603821E-2],"split_indices":[55,0,66,16,0,25,0,71,0,74,75,0,0,0,0],"split_type":[0,0,0,0,0,0,0,0,0,0,0,0,0,0,0],"sum_hessian":[1.8482952E5,1.8455611E5,2.734178E2,2.7114215E2,2.2756371E0,6.3945404E1,2.0719676E2,4.539896E1,1.8546442E1,1.2174659E1,3.32243E1,9.671457E0,2.5032008E0,7.850948E0,2.5373354E1],"tree_param":{"num_deleted":"0","num_feature":"79","num_nodes":"15","size_leaf_vector":"1"}},{"base_weights":[-5.3216213E-1],"categories":[],"categories_nodes":[],"categories_segments":[],"categories_sizes":[],"default_left":[0],"id":3,"left_children":[-1],"loss_changes":[0E0],"parents":[2147483647],"right_children":[-1],"split_conditions":[-5.3216215E-2],"split_indices":[0],"split_type":[0],"sum_hessian":[1.848243E5],"tree_param":{"num_deleted":"0","num_feature":"79","num_nodes":"1","size_leaf_vector":"1"}},{"base_weights":[-1.771417E-1,-5.3370953E-2,3.7616246E0,7.817091E0,-5.3364374E-2,1.6777419E-1,7.87709E0,6.2817776E-1,-5.247016E-2,7.8996367E0,-4.23616E-1,-3.1319104E-2,7.9011116E0,6.93165E-2,-5.0939586E-2,3.873931E-1,7.903688E-1],"categories":[],"categories_nodes":[],"categories_segments":[],"categories_sizes":[],"default_left":[0,0,0,0,0,0,0,0,0,0,0,0,0,0,0,0,0],"id":4,"left_children":[1,-1,3,5,-1,7,9,-1,-1,11,13,-1,15,-1,-1,-1,-1],"loss_changes":[2.7001212E5,0E0,2.780122E5,3.76625E3,0E0,2.7811325E2,1.52775E3,0E0,0E0,1.00875E2,2.5577312E0,0E0,5.365625E1,0E0,0E0,0E0,0E0],"parents":[2147483647,0,0,2,2,3,3,5,5,6,6,9,9,10,10,12,12],"right_children":[2,-1,4,6,-1,8,10,-1,-1,12,14,-1,16,-1,-1,-1,-1],"split_conditions":[3.2738E4,-5.3370953E-2,1.23E2,3.26E2,-5.3364374E-2,3.2882E4,6.6934E4,6.2817776E-1,-5.247016E-2,5.3E1,8.2059E4,-3.1319104E-2,3.94E2,6.93165E-2,-5.0939586E-2,3.873931E-1,7.903688E-1],"split_indices":[67,0,0,3,0,67,3,0,0,0,25,0,22,0,0,0,0],"split_type":[0,0,0,0,0,0,0,0,0,0,0,0,0,0,0,0,0],"sum_hessian":[1.9225402E5,1.7629527E5,1.5958757E4,8.208095E3,7.750662E3,6.3910297E1,8.144184E3,5.6809154E0,5.8229385E1,8.1221704E3,2.2013548E1,1.4202288E0,8.1207505E3,1.0651716E0,2.0948376E1,6.154325E0,8.114596E3],"tree_param":{"num_deleted":"0","num_feature":"79","num_nodes":"17","size_leaf_vector":"1"}},{"base_weights":[-5.3121907E-1,-5.3210086E-1,1.7753557E0,-5.3220905E-2,-2.604006E-1,-5.220608E-2,7.8335327E-1,-5.249683E-2,5.7356155E-1],"categories":[],"categories_nodes":[],"categories_segments":[],"categories_sizes":[],"default_left":[0,0,0,0,0,0,0,0,0],"id":5,"left_children":[1,3,5,-1,7,-1,-1,-1,-1],"loss_changes":[3.7689453E2,5.296875E0,9.9042944E2,0E0,1.2283219E2,0E0,0E0,0E0,0E0],"parents":[2147483647,0,0,1,1,2,2,4,4],"right_children":[2,4,6,-1,8,-1,-1,-1,-1],"split_conditions":[1.2E8,6.4898E4,4.333E3,-5.3220905E-2,2.1E1,-5.220608E-2,7.8335327E-1,-5.249683E-2,5.7356155E-1],"split_indices":[22,4,4,0,0,0,0,0,0],"split_type":[0,0,0,0,0,0,0,0,0],"sum_hessian":[1.8484294E5,1.8477308E5,6.9867134E1,1.8469855E5,7.4532524E1,5.1319344E1,1.8547789E1,7.225672E1,2.2758024E0],"tree_param":{"num_deleted":"0","num_feature":"79","num_nodes":"9","size_leaf_vector":"1"}},{"base_weights":[-5.104132E-1,-5.298879E-1,-2.8095603E-1,-5.316309E-1,-3.829214E-1,-5.3227432E-2,1.7959908E0,-5.3228725E-2,-5.1881695E-1,7.7330174E0,-5.3204525E-2,5.6487465E0,-5.317703E-2,9.848589E-2,-5.3175545E-1,-2.8362105E-2,8.001575E-1,6.930421E0,-1.9108623E-1,-5.28935E-2,7.148007E0,-5.3224947E-2,-3.8924018E-1,7.8744764E0,-5.226869E-2,-5.2714508E-2,6.6230494E-1,7.524361E-1,1.2108362E-1,1.2933378E-1,-5.1468637E-2,7.992283E-1,-4.5550548E-2],"categories":[],"categories_nodes":[],"categories_segments":[],"categories_sizes":[],"default_left":[0,0,0,0,0,0,0,0,0,0,0,0,0,0,0,0,0,0,0,0,0,0,0,0,0,0,0,0,0,0,0,0,0],"id":6,"left_children":[1,3,5,7,9,-1,11,-1,13,15,-1,17,-1,19,21,-1,-1,23,25,-1,27,-1,29,31,-1,-1,-1,-1,-1,-1,-1,-1,-1],"loss_changes":[8.276875E2,4.3539062E1,7.5671396E3,1.1445312E0,2.4307026E3,0E0,1.4037355E4,0E0,6.604492E1,8.029028E1,0E0,4.4133477E3,0E0,7.5776984E2,3.630371E-1,0E0,0E0,3.4054336E3,2.4865556E2,0E0,2.2174194E1,0E0,7.3519993E0,4.247461E2,0E0,0E0,0E0,0E0,0E0,0E0,0E0,0E0,0E0],"parents":[2147483647,0,0,1,1,2,2,3,3,4,4,6,6,8,8,9,9,11,11,13,13,14,14,17,17,18,18,20,20,22,22,23,23],"right_children":[2,4,6,8,10,-1,12,-1,14,16,-1,18,-1,20,22,-1,-1,24,26,-1,28,-1,30,32,-1,-1,-1,-1,-1,-1,-1,-1,-1],"split_conditions":[6.689771E5,5.546314E2,3.2E1,2.1888889E2,9.74E2,-5.3227432E-2,1.23E2,-5.3228725E-2,2.2585715E2,9.2E1,-5.3204525E-2,2.76E7,-5.317703E-2,1.46E4,6.13911E5,-2.8362105E-2,8.001575E-1,4E1,1.6052942E2,-5.28935E-2,6.2E2,-5.3224947E-2,3.9404506E5,2.25E2,-5.226869E-2,-5.2714508E-2,6.6230494E-1,7.524361E-1,1.2108362E-1,1.2933378E-1,-5.1468637E-2,7.992283E-1,-4.5550548E-2],"split_indices":[18,15,70,14,7,0,0,0,14,37,0,27,0,67,18,0,0,70,42,0,8,0,24,68,0,0,0,0,0,0,0,0,0],"split_type":[0,0,0,0,0,0,0,0,0,0,0,0,0,0,0,0,0,0,0,0,0,0,0,0,0,0,0,0,0,0,0,0,0],"sum_hessian":[1.8525534E5,1.7076105E5,1.4494308E4,1.6875706E5,2.0039811E3,1.2930422E4,1.5638853E3,1.6049548E5,8.261575E3,3.5239594E1,1.9687415E3,5.8846704E2,9.754183E2,1.6946938E2,8.092106E3,1.14044E0,3.4099155E1,4.824061E2,1.0606091E2,1.5646837E2,1.3001016E1,8.0614277E3,3.0677835E1,4.2812115E2,5.4284943E1,1.0195533E2,4.1055837E0,1.197462E1,1.0263959E0,1.482572E0,2.9195263E1,4.221909E2,5.930288E0],"tree_param":{"num_deleted":"0","num_feature":"79","num_nodes":"33","size_leaf_vector":"1"}},{"base_weights":[-2.900628E-1,9.2578995E-1,-5.176234E-1,-5.331983E-2,7.3408947E0,-5.332165E-2,-3.5823408E-1,7.9795227E0,-5.223599E-1,-4.2388216E-1,6.122736E0,8.022996E-1,-5.1351156E-2,4.2338645E-1,-5.319312E-2,-5.2211845E-1,1.378122E0,-5.1647622E-2,7.9539657E-1,-3.7341956E-2,1.3539933E-1,6.791455E0,-5.3318024E-2,7.9463468E0,-5.322783E-2,7.5868076E-1,-3.5466272E-2,1.6764328E-1,7.976436E-1],"categories":[],"categories_nodes":[],"categories_segments":[],"categories_sizes":[],"default_left":[0,0,0,0,0,0,0,0,0,0,0,0,0,0,0,0,0,0,0,0,0,0,0,0,0,0,0,0,0],"id":7,"left_children":[1,3,5,-1,7,-1,9,11,13,15,17,-1,-1,19,-1,21,23,-1,-1,-1,-1,25,-1,27,-1,-1,-1,-1,-1],"loss_changes":[5.2513555E4,2.8006734E5,3.9715234E2,0E0,2.7846656E4,0E0,6.065403E3,1.8975E3,4.0036316E0,2.4981375E3,1.7422007E3,0E0,0E0,4.019531E0,0E0,1.0860242E3,9.159324E3,0E0,0E0,0E0,0E0,1.1794714E2,0E0,1.765332E1,0E0,0E0,0E0,0E0,0E0],"parents":[2147483647,0,0,1,1,2,2,4,4,6,6,7,7,8,8,9,9,10,10,13,13,15,15,16,16,21,21,23,23],"right_children":[2,4,6,-1,8,-1,10,12,14,16,18,-1,-1,20,-1,22,24,-1,-1,-1,-1,26,-1,28,-1,-1,-1,-1,-1],"split_conditions":[1E0,3.2E1,4.061217E2,-5.331983E-2,9.523809E4,-5.332165E-2,1E0,1.23E2,1.786025E5,2.4E1,5.3E1,8.022996E-1,-5.1351156E-2,5.3E1,-5.319312E-2,1E0,9.57E2,-5.1647622E-2,7.9539657E-1,-3.7341956E-2,1.3539933E-1,1.23E2,-5.3318024E-2,6.9E1,-5.322783E-2,7.5868076E-1,-3.5466272E-2,1.6764328E-1,7.976436E-1],"split_indices":[5,70,15,0,21,0,50,0,22,70,0,0,0,0,0,67,7,0,0,0,0,0,0,10,0,0,0,0,0],"split_type":[0,0,0,0,0,0,0,0,0,0,0,0,0,0,0,0,0,0,0,0,0,0,0,0,0,0,0,0,0],"sum_hessian":[1.8979597E5,2.9921707E4,1.5987427E5,2.437827E4,5.543437E3,1.4562538E5,1.4248894E4,5.127022E3,4.1641498E2,1.4106934E4,1.4195966E2,5.100967E3,2.6055147E1,3.7388551E0,4.1267615E2,1.3378324E4,7.286094E2,3.0845554E1,1.111141E2,2.3367844E0,1.4020706E0,1.9278471E1,1.3359046E4,1.6345807E2,5.651513E2,1.7292206E1,1.9862667E0,1.051553E0,1.6240652E2],"tree_param":{"num_deleted":"0","num_feature":"79","num_nodes":"29","size_leaf_vector":"1"}},{"base_weights":[-4.575487E-1,-5.2192074E-1,2.4755628E0,-5.323837E-1,7.606155E-2,-4.1239306E-1,3.2478654E0,-5.3247284E-2,-4.7460824E-1,3.3737962E0,-5.323251E-2,-5.2611083E-2,-3.994837E-2,-5.3160798E-2,4.0968204E0,3.5029384E-1,-5.3064015E-2,1.9338301E0,5.8582006E0,3.0808476E-1,6.078055E0,3.9055932E0,8.482681E-1,7.02164E-1,3.8587675E0,5.290638E0,6.28996E-1,5.972282E-1,3.1122893E-1,4.791565E-3,2.792456E-1,4.983719E-1,1.4452787E-1,4.380993E-1,6.5708774E-1],"categories":[],"categories_nodes":[],"categories_segments":[],"categories_sizes":[],"default_left":[0,0,0,0,0,0,0,0,0,0,0,0,0,0,0,0,0,0,0,0,0,0,0,0,0,0,0,0,0,0,0,0,0,0,0],"id":8,"left_children":[1,3,5,7,9,11,13,-1,15,17,-1,-1,-1,-1,19,-1,-1,21,23,-1,25,27,29,-1,31,33,-1,-1,-1,-1,-1,-1,-1,-1,-1],"loss_changes":[3.5179777E4,1.1407266E3,8.925934E3,6.71875E-1,6.29355E3,1.0305481E0,1.0132445E4,0E0,6.547632E1,1.7365293E3,0E0,0E0,0E0,0E0,5.170949E3,0E0,0E0,6.6193567E2,3.8878613E2,0E0,1.1237695E2,1.618844E2,3.1374823E2,0E0,1.7737439E2,1.9410596E2,0E0,0E0,0E0,0E0,0E0,0E0,0E0,0E0,0E0],"parents":[2147483647,0,0,1,1,2,2,3,3,4,4,5,5,6,6,8,8,9,9,14,14,17,17,18,18,20,20,21,21,22,22,24,24,25,25],"right_children":[2,4,6,8,10,12,14,-1,16,18,-1,-1,-1,-1,20,-1,-1,22,24,-1,26,28,30,-1,32,34,-1,-1,-1,-1,-1,-1,-1,-1,-1],"split_conditions":[2E5,2.9411766E4,2E0,2.5E4,2.2E1,4E1,4E1,-5.3247284E-2,2.2E1,2.0500435E1,-5.323251E-2,-5.2611083E-2,-3.994837E-2,-5.3160798E-2,3E0,3.5029384E-1,-5.3064015E-2,1.7E1,2.4E1,3.0808476E-1,6.666667E5,7.1838255E0,2E1,7.02164E-1,3.846154E4,5E0,6.28996E-1,5.972282E-1,3.1122893E-1,4.791565E-3,2.792456E-1,4.983719E-1,1.4452787E-1,4.380993E-1,6.5708774E-1],"split_indices":[39,39,18,39,0,36,36,0,0,21,0,0,0,0,3,0,0,21,20,0,17,21,20,0,39,3,0,0,0,0,0,0,0,0,0],"split_type":[0,0,0,0,0,0,0,0,0,0,0,0,0,0,0,0,0,0,0,0,0,0,0,0,0,0,0,0,0,0,0,0,0,0,0],"sum_hessian":[1.8631547E5,1.8231508E5,4.0003882E3,1.7918008E5,3.1350024E3,8.4416705E2,3.1562212E3,1.7889562E5,2.8444757E2,4.875753E2,2.647427E3,8.200807E1,7.6215894E2,5.7898846E2,2.5772327E3,3.0968084E0,2.8135077E2,3.0979553E2,1.7777974E2,1.7053092E3,8.719236E2,1.0907648E2,2.0071906E2,1.1079692E2,6.698282E1,1.9039636E2,6.815272E2,2.844476E1,8.0631714E1,1.4291197E2,5.780709E1,4.496107E1,2.2021748E1,1.1389373E2,7.650264E1],"tree_param":{"num_deleted":"0","num_feature":"79","num_nodes":"35","size_leaf_vector":"1"}},{"base_weights":[-5.2643675E-1,-5.3011537E-1,1.5794848E0,-5.304954E-1,-3.8200265E-1,-5.3002488E-2,7.5054083E0,-5.316808E-1,-4.980468E-1,7.2417074E-1,-5.1405674E-1,-4.527217E-2,8.0838376E-1,-5.317652E-1,1.405305E-1,-5.3216975E-2,2.9532952E0,-5.3111345E-2,2.7571303E-1,-5.3183836E-1,-1.1048618E-3,-5.073562E-2,5.204022E-1,5.6575494E0,-5.1383078E-2,-5.319279E-2,-4.753905E-2,-5.100728E-2,4.9242392E-1,7.0502234E-1,-4.622487E-2],"categories":[],"categories_nodes":[],"categories_segments":[],"categories_sizes":[],"default_left":[0,0,0,0,0,0,0,0,0,0,0,0,0,0,0,0,0,0,0,0,0,0,0,0,0,0,0,0,0,0,0],"id":9,"left_children":[1,3,5,7,9,-1,11,13,15,-1,17,-1,-1,19,21,-1,23,-1,-1,25,27,-1,-1,29,-1,-1,-1,-1,-1,-1,-1],"loss_changes":[1.4335195E3,1.01875E1,4.038426E3,6.8242188E0,4.8302145E2,0E0,3.9397754E2,1.01484375E1,7.6775183E2,0E0,2.7627914E1,0E0,0E0,6.8945312E0,7.837739E1,0E0,6.0151025E2,0E0,0E0,6.4453125E-1,6.637951E1,0E0,0E0,3.0966882E2,0E0,0E0,0E0,0E0,0E0,0E0,0E0],"parents":[2147483647,0,0,1,1,2,2,3,3,4,4,6,6,7,7,8,8,10,10,13,13,14,14,16,16,19,19,20,20,23,23],"right_children":[2,4,6,8,10,-1,12,14,16,-1,18,-1,-1,20,22,-1,24,-1,-1,26,28,-1,-1,30,-1,-1,-1,-1,-1,-1,-1],"split_conditions":[3.4559584E7,1.4259259E6,5.6E1,4.36066E5,1.2E1,-5.3002488E-2,3.2E1,5.63E7,1.12E2,7.2417074E-1,3.148011E2,-4.527217E-2,8.0838376E-1,8.876838E7,2.4E1,-5.3216975E-2,3.484219E6,-5.3111345E-2,2.7571303E-1,4.00025E6,5.472286E7,-5.073562E-2,5.204022E-1,9.946225E-1,-5.1383078E-2,-5.319279E-2,-4.753905E-2,-5.100728E-2,4.9242392E-1,7.0502234E-1,-4.622487E-2],"split_indices":[28,16,37,21,6,0,70,23,36,0,15,0,0,75,37,0,3,0,0,71,29,0,0,17,0,0,0,0,0,0,0],"split_type":[0,0,0,0,0,0,0,0,0,0,0,0,0,0,0,0,0,0,0,0,0,0,0,0,0,0,0,0,0,0,0],"sum_hessian":[1.8493748E5,1.8461575E5,3.2173535E2,1.8414067E5,4.7508905E2,2.37943E2,8.3792366E1,1.7763594E5,6.5047236E3,7.1724443E0,4.679166E2,5.692416E0,7.8099945E1,1.7761386E5,2.2086575E1,6.4418794E3,6.2844273E1,4.6632272E2,1.5938765E0,1.7758938E5,2.4477388E1,2.0378849E1,1.7077248E0,3.4951435E1,2.789284E1,1.7729964E5,2.89744E2,2.299736E1,1.4800282E0,2.8348232E1,6.603203E0],"tree_param":{"num_deleted":"0","num_feature":"79","num_nodes":"31","size_leaf_vector":"1"}},{"base_weights":[-4.2878234E-1,-5.099935E-1,4.6527095E0,-5.307189E-1,6.305872E-1,-5.314967E-2,5.6241636E0,-5.3252256E-1,-1.8419176E-1,-5.3238124E-2,2.5349975E0,8.0148536E-1,4.5516273E-1,-5.325837E-2,-4.923663E-1,2.1658895E0,-5.3199053E-2,1.5515735E0,5.1282654E0,2.2757296E-1,-5.3076178E-2,3.1351814E-1,3.5958302E0,2.1859865E0,1.3449657E-1,6.0379853E0,7.04268E-2,8.649242E-2,1.037776E-2,2.385503E-1,5.8565897E-1,3.1856132E-1,1.0813786E-1,4.3763104E-1,6.681157E-1],"categories":[],"categories_nodes":[],"categories_segments":[],"categories_sizes":[],"default_left":[0,0,0,0,0,0,0,0,0,0,0,0,0,0,0,0,0,0,0,0,0,0,0,0,0,0,0,0,0,0,0,0,0,0,0],"id":10,"left_children":[1,3,5,7,9,-1,11,13,15,-1,17,-1,-1,-1,19,21,-1,23,25,-1,-1,27,29,31,-1,33,-1,-1,-1,-1,-1,-1,-1,-1,-1],"loss_changes":[7.713145E4,4.3490117E3,1.4810055E4,1.1283203E2,7.273673E3,0E0,6.3127734E3,1.796875E-1,7.6709485E2,0E0,3.1674106E3,0E0,0E0,0E0,3.1640762E1,3.1938525E2,0E0,1.1557666E2,1.3718066E3,0E0,0E0,6.1335874E0,1.7262268E2,2.4006079E2,0E0,2.7371094E2,0E0,0E0,0E0,0E0,0E0,0E0,0E0,0E0,0E0],"parents":[2147483647,0,0,1,1,2,2,3,3,4,4,6,6,7,7,8,8,10,10,14,14,15,15,17,17,18,18,21,21,22,22,23,23,25,25],"right_children":[2,4,6,8,10,-1,12,14,16,-1,18,-1,-1,-1,20,22,-1,24,26,-1,-1,28,30,32,-1,34,-1,-1,-1,-1,-1,-1,-1,-1,-1],"split_conditions":[5E5,4.7619047E4,4E1,2.9411766E4,4E1,-5.314967E-2,2E0,2.5E4,2.2E1,-5.3238124E-2,7.1838255E0,8.0148536E-1,4.5516273E-1,-5.325837E-2,2.2E1,2.4E1,-5.3199053E-2,6.666667E5,2.0500435E1,2.2757296E-1,-5.3076178E-2,9.090909E4,3.846154E4,5E0,1.3449657E-1,1.7E1,7.04268E-2,8.649242E-2,1.037776E-2,2.385503E-1,5.8565897E-1,3.1856132E-1,1.0813786E-1,4.3763104E-1,6.681157E-1],"split_indices":[39,39,36,39,70,0,3,39,0,0,21,0,0,0,0,20,0,17,21,0,0,17,39,3,0,21,0,0,0,0,0,0,0,0,0],"split_type":[0,0,0,0,0,0,0,0,0,0,0,0,0,0,0,0,0,0,0,0,0,0,0,0,0,0,0,0,0,0,0,0,0,0,0],"sum_hessian":[1.8689989E5,1.8396078E5,2.9391155E3,1.8067822E5,3.2825588E3,4.6390735E2,2.475208E3,1.7974212E5,9.3609875E2,2.038454E3,1.2441047E3,7.645497E2,1.7106583E3,1.7945678E5,2.8533984E2,1.20003815E2,8.16095E2,9.031926E2,3.4091208E2,3.1065226E0,2.822333E2,5.2810883E1,6.719293E1,2.1952759E2,6.8366504E2,2.8246344E2,5.8448647E1,1.369171E1,3.911917E1,4.5102104E1,2.2090826E1,1.1425099E2,1.05276596E2,8.0999695E1,2.0146373E2],"tree_param":{"num_deleted":"0","num_feature":"79","num_nodes":"35","size_leaf_vector":"1"}},{"base_weights":[-4.4565427E-1,-2.1812329E-1,-4.8150453E-1,-3.2688147E-1,2.911901E-1,-5.17484E-1,-3.7845823E-1,-5.2568084E-1,-2.518183E-1,-3.0405667E-1,2.2615304E0,-2.865075E-1,-5.2676976E-1,-3.808617E-1,3.5361602E0,-5.270614E-1,3.0603593E-3,-2.5547633E-1,3.0358374E0,-3.6495042E-1,5.5615383E-1,2.4988222E0,-2.0095801E-1,-2.916643E-1,1.4053608E0,-5.3001237E-1,-3.240895E-1,-2.0532547E-1,-4.317041E-1,3.7265483E-1,-2.8468644E-2,-5.2758217E-1,1.4039153E-1,-2.5965938E-1,8.554382E-1,-4.227826E-2,-2.5932497E-1,3.1418226E0,7.1278796E-2,-3.7177807E-1,1.2082721E0,8.517331E-1,-5.020863E-1,1.8756272E0,3.4802725E0,-2.8655326E-1,5.630429E-1,-2.6249596E-1,-5.164146E-1,3.0182242E0,-4.287753E-3,-5.307399E-1,-3.33611E-1,-5.1336205E-1,5.3731334E-1,-3.7850833E-1,5.9630424E-1,-4.3355218E-1,3.943241E0,-4.9891125E-2,-5.322612E-2,8.2202904E-2,-3.8632017E-2,5.8640268E-2,-4.0136706E-2,1.0647979E-1,1.8076545E-2,1.116585E-2,-7.729087E-3,-2.6376603E-2,-1.1974443E-2,3.3868146E-1,1.3198033E-1,-4.5955177E-2,-2.8975358E-2,2.8739575E-1,-4.6508014E-2,1.2807909E-1,1.8206222E-2,-5.213919E-2,-1.1170308E-2,-3.56307E-2,1.9062185E-1,3.7224582E-1,2.4026902E-1,1.3733587E-1,-3.3115517E-2,-3.9896186E-2,1.0566719E-1,-2.9941026E-2,-3.429463E-3,-5.1828045E-2,2.2105029E-2,4.0507242E-1,-3.1894498E-2,-3.263423E-2,1.1116692E-1,-5.3095967E-2,-3.7452977E-2,-5.3108424E-2,7.857891E-2,-5.1604133E-2,1.4700702E-1,1.1329615E-1,-7.773747E-3,-3.9309617E-2,3.7541303E-1,3.5206792E-1,5.615125E-2,-3.81884E-2,-5.310076E-2,4.385684E-2,4.3712774E-1],"categories":[],"categories_nodes":[],"categories_segments":[],"categories_sizes":[],"default_left":[0,0,0,0,0,0,0,0,0,0,0,0,0,0,0,0,0,0,0,0,0,0,0,0,0,0,0,0,0,0,0,0,0,0,0,0,0,0,0,0,0,0,0,0,0,0,0,0,0,0,0,0,0,0,0,0,0,0,0,0,0,0,0,0,0,0,0,0,0,0,0,0,0,0,0,0,0,0,0,0,0,0,0,0,0,0,0,0,0,0,0,0,0,0,0,0,0,0,0,0,0,0,0,0,0,0,0,0,0,0,0,0,0],"id":11,"left_children":[1,3,5,7,9,11,13,15,17,19,21,23,25,27,29,31,33,35,37,39,41,43,45,47,49,51,53,55,57,-1,-1,59,61,63,65,67,69,71,-1,73,75,77,79,81,83,85,87,89,91,93,95,97,99,101,103,105,107,109,111,-1,-1,-1,-1,-1,-1,-1,-1,-1,-1,-1,-1,-1,-1,-1,-1,-1,-1,-1,-1,-1,-1,-1,-1,-1,-1,-1,-1,-1,-1,-1,-1,-1,-1,-1,-1,-1,-1,-1,-1,-1,-1,-1,-1,-1,-1,-1,-1,-1,-1,-1,-1,-1,-1],"loss_changes":[1.5216562E3,1.4067849E3,5.973242E2,3.1215112E2,5.24229E3,2.5604688E2,3.9380273E2,4.187866E0,1.8349219E2,1.8003583E2,6.0646045E2,4.0707245E1,7.529883E1,3.7196094E2,1.9750122E1,2.062378E0,3.789396E0,1.2442139E1,1.9371033E0,3.4894623E1,7.1544266E1,5.720449E2,6.1823807E0,3.0056885E1,3.231395E1,1.5972656E1,2.9551532E2,1.3002913E3,2.630586E2,0E0,0E0,5.0109863E-1,2.202191E0,1.7872493E0,3.705368E-1,1.4655352E0,9.209473E0,2.6408386E0,0E0,2.2860107E1,4.0615856E1,5.093724E1,3.2061005E-1,4.0330566E1,8.662695E1,6.6336784E0,4.9867067E0,3.4347168E1,8.411255E-1,2.4127514E1,3.4463446E0,3.6660156E0,9.322354E1,8.65094E0,1.19776E2,4.6576855E2,1.6733252E2,1.624961E2,1.8706345E1,0E0,0E0,0E0,0E0,0E0,0E0,0E0,0E0,0E0,0E0,0E0,0E0,0E0,0E0,0E0,0E0,0E0,0E0,0E0,0E0,0E0,0E0,0E0,0E0,0E0,0E0,0E0,0E0,0E0,0E0,0E0,0E0,0E0,0E0,0E0,0E0,0E0,0E0,0E0,0E0,0E0,0E0,0E0,0E0,0E0,0E0,0E0,0E0,0E0,0E0,0E0,0E0,0E0,0E0],"parents":[2147483647,0,0,1,1,2,2,3,3,4,4,5,5,6,6,7,7,8,8,9,9,10,10,11,11,12,12,13,13,14,14,15,15,16,16,17,17,18,18,19,19,20,20,21,21,22,22,23,23,24,24,25,25,26,26,27,27,28,28,31,31,32,32,33,33,34,34,35,35,36,36,37,37,39,39,40,40,41,41,42,42,43,43,44,44,45,45,46,46,47,47,48,48,49,49,50,50,51,51,52,52,53,53,54,54,55,55,56,56,57,57,58,58],"right_children":[2,4,6,8,10,12,14,16,18,20,22,24,26,28,30,32,34,36,38,40,42,44,46,48,50,52,54,56,58,-1,-1,60,62,64,66,68,70,72,-1,74,76,78,80,82,84,86,88,90,92,94,96,98,100,102,104,106,108,110,112,-1,-1,-1,-1,-1,-1,-1,-1,-1,-1,-1,-1,-1,-1,-1,-1,-1,-1,-1,-1,-1,-1,-1,-1,-1,-1,-1,-1,-1,-1,-1,-1,-1,-1,-1,-1,-1,-1,-1,-1,-1,-1,-1,-1,-1,-1,-1,-1,-1,-1,-1,-1,-1,-1],"split_conditions":[1E0,8E1,1.23E2,1.93E2,1E0,0E0,1E0,2.92E4,2.4E1,5.3433E4,1.403E3,4E0,2.8515908E6,4.45E2,9.780478E0,5.3E1,2.2E1,3.6444443E1,1E0,1.1E2,5.647E4,2.3E2,1E0,5.6317736E7,2.1E1,1.25333336E2,1E0,1E0,1.42E3,3.7265483E-1,-2.8468644E-2,3.2E1,1.7E1,2.1E1,2.4E1,2.72E2,4.009623E3,8.547009E3,7.1278796E-2,5.0666E4,1.58E2,2.6E1,2.0925553E5,2.4E1,3.12E2,3E0,1.2121212E4,1.89554E5,4.08E2,7.7903E4,1.18E2,2.1677777E2,1E0,1.4998565E7,1.0001003E7,3.2E1,4.43E2,7.25E2,2.266E2,-4.9891125E-2,-5.322612E-2,8.2202904E-2,-3.8632017E-2,5.8640268E-2,-4.0136706E-2,1.0647979E-1,1.8076545E-2,1.116585E-2,-7.729087E-3,-2.6376603E-2,-1.1974443E-2,3.3868146E-1,1.3198033E-1,-4.5955177E-2,-2.8975358E-2,2.8739575E-1,-4.6508014E-2,1.2807909E-1,1.8206222E-2,-5.213919E-2,-1.1170308E-2,-3.56307E-2,1.9062185E-1,3.7224582E-1,2.4026902E-1,1.3733587E-1,-3.3115517E-2,-3.9896186E-2,1.0566719E-1,-2.9941026E-2,-3.429463E-3,-5.1828045E-2,2.2105029E-2,4.0507242E-1,-3.1894498E-2,-3.263423E-2,1.1116692E-1,-5.3095967E-2,-3.7452977E-2,-5.3108424E-2,7.857891E-2,-5.1604133E-2,1.4700702E-1,1.1329615E-1,-7.773747E-3,-3.9309617E-2,3.7541303E-1,3.5206792E-1,5.615125E-2,-3.81884E-2,-5.310076E-2,4.385684E-2,4.3712774E-1],"split_indices":[22,0,0,18,48,67,34,67,36,0,67,5,19,0,38,0,18,42,49,13,0,18,47,25,0,55,47,47,12,0,0,36,1,0,20,3,38,17,0,0,7,21,20,70,21,3,21,26,7,26,13,54,47,71,77,70,0,8,54,0,0,0,0,0,0,0,0,0,0,0,0,0,0,0,0,0,0,0,0,0,0,0,0,0,0,0,0,0,0,0,0,0,0,0,0,0,0,0,0,0,0,0,0,0,0,0,0,0,0,0,0,0,0],"split_type":[0,0,0,0,0,0,0,0,0,0,0,0,0,0,0,0,0,0,0,0,0,0,0,0,0,0,0,0,0,0,0,0,0,0,0,0,0,0,0,0,0,0,0,0,0,0,0,0,0,0,0,0,0,0,0,0,0,0,0,0,0,0,0,0,0,0,0,0,0,0,0,0,0,0,0,0,0,0,0,0,0,0,0,0,0,0,0,0,0,0,0,0,0,0,0,0,0,0,0,0,0,0,0,0,0,0,0,0,0,0,0,0,0],"sum_hessian":[1.8655648E5,2.5394178E4,1.611623E5,2.0926018E4,4.4681587E3,1.1945095E5,4.171135E4,5.73398E3,1.5192038E4,3.432142E3,1.0360166E3,4.617802E3,1.1483315E5,4.168666E4,2.469167E1,5.7190503E3,1.4929847E1,1.5176075E4,1.5963452E1,3.2057827E3,2.2635945E2,9.4494446E2,9.107207E1,4.6045947E3,1.3207172E1,1.13023305E5,1.809842E3,9.363541E3,3.232312E4,2.354322E1,1.1484498E0,5.714801E3,4.2492642E0,1.1943878E1,2.9859695E0,2.6931146E2,1.4906764E4,1.4929847E1,1.0336049E0,3.1926904E3,1.3092327E1,1.7709096E2,4.9268494E1,5.797374E2,3.6520703E2,8.2458694E1,8.613374E0,4.077571E3,5.270236E2,5.6274037E0,7.5797687E0,1.1260447E5,4.1883963E2,1.4841416E3,3.2570035E2,7.7004707E3,1.6630701E3,3.2310371E4,1.2747792E1,8.1689233E2,4.8979087E3,1.6078297E0,2.6414344E0,1.2632947E0,1.0680583E1,1.8375196E0,1.1484498E0,4.9498184E1,2.198133E2,1.4446235E4,4.6052835E2,1.2403257E1,2.5265894E0,1.5400712E3,1.6526193E3,6.2016287E0,6.8906984E0,1.0738005E2,6.97109E1,4.662706E1,2.6414344E0,7.6946135E0,5.7204285E2,2.961852E2,6.9021835E1,1.3781397E0,8.108055E1,2.9859695E0,5.6274037E0,3.5095476E3,5.6802325E2,5.2599E2,1.0336049E0,4.1344194E0,1.4929848E0,6.4313188E0,1.1484498E0,1.12443914E5,1.6055328E2,3.5647882E2,6.2360825E1,1.4828783E3,1.2632947E0,1.6503223E2,1.6066812E2,7.674286E3,2.6184654E1,1.8375196E1,1.644695E3,2.1118729E4,1.1191644E4,1.6078297E0,1.1139963E1],"tree_param":{"num_deleted":"0","num_feature":"79","num_nodes":"113","size_leaf_vector":"1"}},{"base_weights":[-5.3219986E-1],"categories":[],"categories_nodes":[],"categories_segments":[],"categories_sizes":[],"default_left":[0],"id":12,"left_children":[-1],"loss_changes":[0E0],"parents":[2147483647],"right_children":[-1],"split_conditions":[-5.3219985E-2],"split_indices":[0],"split_type":[0],"sum_hessian":[1.8482356E5],"tree_param":{"num_deleted":"0","num_feature":"79","num_nodes":"1","size_leaf_vector":"1"}},{"base_weights":[-5.321891E-1],"categories":[],"categories_nodes":[],"categories_segments":[],"categories_sizes":[],"default_left":[0],"id":13,"left_children":[-1],"loss_changes":[0E0],"parents":[2147483647],"right_children":[-1],"split_conditions":[-5.321891E-2],"split_indices":[0],"split_type":[0],"sum_hessian":[1.8482377E5],"tree_param":{"num_deleted":"0","num_feature":"79","num_nodes":"1","size_leaf_vector":"1"}},{"base_weights":[-4.3214542E-1,-4.7887295E-1,5.118902E0,-5.2691036E-1,1.2316958E0,8.148991E0,-5.316521E-2,-5.3059036E-1,1.1350027E0,-5.317461E-2,7.8882294E0,1.694568E-1,8.153907E-1,-5.3230166E-1,-1.7589054E-1,8.00569E0,-5.309729E-2,8.154012E-1,-5.1669803E-2,-5.3246867E-2,-4.904554E-1,-5.3198457E-2,7.3643546E0,8.055671E-1,2.1859376E-1,-5.3187877E-2,1.53015E-1,7.937874E-1,-3.8651597E-2],"categories":[],"categories_nodes":[],"categories_segments":[],"categories_sizes":[],"default_left":[0,0,0,0,0,0,0,0,0,0,0,0,0,0,0,0,0,0,0,0,0,0,0,0,0,0,0,0,0],"id":14,"left_children":[1,3,5,7,9,11,-1,13,15,-1,17,-1,-1,19,21,23,-1,-1,-1,-1,25,-1,27,-1,-1,-1,-1,-1,-1],"loss_changes":[4.8464273E4,1.5224824E4,2.6708527E4,1.1027695E3,5.941419E4,1.8398438E1,0E0,1.0905469E2,4.565513E3,0E0,2.3722344E3,0E0,0E0,9.84375E-1,2.3261282E3,5.029297E0,0E0,0E0,0E0,0E0,6.1411118E1,0E0,1.767439E2,0E0,0E0,0E0,0E0,0E0,0E0],"parents":[2147483647,0,0,1,1,2,2,3,3,4,4,5,5,7,7,8,8,10,10,13,13,14,14,15,15,20,20,22,22],"right_children":[2,4,6,8,10,12,-1,14,16,-1,18,-1,-1,20,22,24,-1,-1,-1,-1,26,-1,28,-1,-1,-1,-1,-1,-1],"split_conditions":[7.12E2,1.1111111E5,5.3E1,5.32E2,2.4E1,7.1E1,-5.316521E-2,5.263158E4,5.3E1,-5.317461E-2,5.3E1,1.694568E-1,8.153907E-1,3.846154E4,2.4E1,2.2105262E5,-5.309729E-2,8.154012E-1,-5.1669803E-2,-5.3246867E-2,2.4E1,-5.3198457E-2,5.3E1,8.055671E-1,2.1859376E-1,-5.3187877E-2,1.53015E-1,7.937874E-1,-3.8651597E-2],"split_indices":[36,39,0,36,37,10,0,39,0,0,0,0,0,39,37,20,0,0,0,0,37,0,0,0,0,0,0,0,0],"split_type":[0,0,0,0,0,0,0,0,0,0,0,0,0,0,0,0,0,0,0,0,0,0,0,0,0,0,0,0,0],"sum_hessian":[1.8683128E5,1.8527261E5,1.5586716E3,1.8021244E5,5.060162E3,1.01430975E3,5.4436194E2,1.7981495E5,3.974889E2,4.001112E3,1.0590502E3,1.0351273E0,1.0132746E3,1.7895108E5,8.638712E2,7.6829445E1,3.2065942E2,1.0266162E3,3.2433987E1,1.7822811E5,7.229789E2,8.258016E2,3.8069683E1,7.579432E1,1.0351273E0,7.091772E2,1.3801697E1,3.5424355E1,2.6453252E0],"tree_param":{"num_deleted":"0","num_feature":"79","num_nodes":"29","size_leaf_vector":"1"}},{"base_weights":[2.1862257E0,1.149759E0,2.3953347E0,1.6854107E0,-4.1834688E-1,2.4444263E0,1.4347423E0,2.3639886E0,8.972016E-1,-5.5738276E-1,2.2712204E0,2.469367E0,2.0364287E0,-5.316602E-1,2.4889019E0,2.4197202E0,1.639378E0,2.441911E0,-8.161503E-2,-5.661025E-1,2.3967211E-1,1.23608E0,2.3753648E0,2.4699967E0,3.738894E-1,2.4699976E0,-4.9845922E-1,-5.603997E-1,1.9466152E0,2.4891026E-1,1.136148E-1,2.4615133E0,2.3146589E0,1.3128204E0,1.8177288E0,2.4590013E0,1.3719965E0,2.3726163E0,-5.3894126E-1,-5.7070124E-1,1.9488168E0,2.2306418E-1,1.1568034E0,2.460713E-1,1.3243955E0,2.4910474E-1,2.4243252E0,-5.6900006E-2,2.4468708E-1,2.4713075E0,1.315655E0,-5.759237E-2,2.4728322E-1,-5.737463E-1,2.0816898E0,-5.3188212E-2,2.3740537E-1,2.3980246E-1,2.4860351E-1,6.4361006E-2,2.4608532E-1,1.2183801E-1,1.6610281E-1,1.6548261E-1,1.8444763E-1,2.4703006E-1,2.1656404E-1,-2.715659E-2,2.4025786E-1,2.3877159E-1,-4.7554385E-2,-5.6103833E-2,2.2961183E-1,-5.7181783E-2,1.7724782E-1,2.331625E-1,1.4678607E-2,1.3607273E-1,8.747411E-2,2.3983157E-1,1.1671137E-1,2.4299304E-1,-4.2063545E-2,2.4114661E-1,2.4887891E-1,7.926325E-2,1.8575327E-1,1.9435911E-1,-5.748824E-2,2.422478E-1,-4.691405E-2],"categories":[],"categories_nodes":[],"categories_segments":[],"categories_sizes":[],"default_left":[0,0,0,0,0,0,0,0,0,0,0,0,0,0,0,0,0,0,0,0,0,0,0,0,0,0,0,0,0,0,0,0,0,0,0,0,0,0,0,0,0,0,0,0,0,0,0,0,0,0,0,0,0,0,0,0,0,0,0,0,0,0,0,0,0,0,0,0,0,0,0,0,0,0,0,0,0,0,0,0,0,0,0,0,0,0,0,0,0,0,0],"id":15,"left_children":[1,3,5,7,9,11,13,15,17,19,21,23,25,27,29,31,33,35,37,39,-1,41,43,45,47,49,51,53,55,-1,-1,57,59,61,63,65,67,69,71,73,75,-1,77,-1,79,-1,81,-1,-1,83,85,-1,-1,87,89,-1,-1,-1,-1,-1,-1,-1,-1,-1,-1,-1,-1,-1,-1,-1,-1,-1,-1,-1,-1,-1,-1,-1,-1,-1,-1,-1,-1,-1,-1,-1,-1,-1,-1,-1,-1],"loss_changes":[1.0868175E5,7.071545E4,1.967425E4,3.3561938E4,8.017393E3,4.0345E3,4.206203E4,1.3578125E3,4.3897523E4,5.2641943E2,1.1067578E2,4.93E2,2.5142352E4,5.0551477E2,7.578125E-1,1.3179688E2,1.3806006E2,2.0254688E2,1.9949043E4,2.3617383E2,0E0,5.1797485E0,8.253418E1,3.5325E2,2.2339665E2,2.628125E1,7.7064453E2,2.4809741E2,8.751001E1,0E0,0E0,2.8875E1,2.1793477E3,2.6105835E1,3.7319336E0,3.1382812E1,3.0438394E2,1.21200195E2,9.398491E2,5.409424E1,2.54048E1,0E0,4.172447E0,0E0,9.700836E0,0E0,1.88325E3,0E0,0E0,1.440625E1,5.4086113E0,0E0,0E0,2.1042969E1,3.1916382E1,0E0,0E0,0E0,0E0,0E0,0E0,0E0,0E0,0E0,0E0,0E0,0E0,0E0,0E0,0E0,0E0,0E0,0E0,0E0,0E0,0E0,0E0,0E0,0E0,0E0,0E0,0E0,0E0,0E0,0E0,0E0,0E0,0E0,0E0,0E0,0E0],"parents":[2147483647,0,0,1,1,2,2,3,3,4,4,5,5,6,6,7,7,8,8,9,9,10,10,11,11,12,12,13,13,14,14,15,15,16,16,17,17,18,18,19,19,21,21,22,22,23,23,24,24,25,25,26,26,27,27,28,28,31,31,32,32,33,33,34,34,35,35,36,36,37,37,38,38,39,39,40,40,42,42,44,44,46,46,49,49,50,50,53,53,54,54],"right_children":[2,4,6,8,10,12,14,16,18,20,22,24,26,28,30,32,34,36,38,40,-1,42,44,46,48,50,52,54,56,-1,-1,58,60,62,64,66,68,70,72,74,76,-1,78,-1,80,-1,82,-1,-1,84,86,-1,-1,88,90,-1,-1,-1,-1,-1,-1,-1,-1,-1,-1,-1,-1,-1,-1,-1,-1,-1,-1,-1,-1,-1,-1,-1,-1,-1,-1,-1,-1,-1,-1,-1,-1,-1,-1,-1,-1],"split_conditions":[1E0,3.2E1,2.6883E4,2.052E3,1.23E2,8.08E3,1.23E2,2.4E1,5.7015793E1,2.92E4,1.39E2,8.6334264E7,1E0,6.43E2,8.58E2,3.76E2,8.547009E3,4.1093075E1,4.02E2,8.1709856E5,2.3967211E-1,2.102528E5,3.1088E4,9E-1,1.7E1,2.72E2,3.66E2,2.53E2,7E0,2.4891026E-1,1.136148E-1,3.0837547E1,7.24E2,3.12E2,4.761905E3,1E0,1.23E2,3E0,9.292E3,1E0,3.1E7,2.2306418E-1,1.2E7,2.460713E-1,4E1,2.4910474E-1,1E0,-5.6900006E-2,2.4468708E-1,5.3E1,2.3190275E5,-5.759237E-2,2.4728322E-1,4E1,1.1230769E2,-5.3188212E-2,2.3740537E-1,2.3980246E-1,2.4860351E-1,6.4361006E-2,2.4608532E-1,1.2183801E-1,1.6610281E-1,1.6548261E-1,1.8444763E-1,2.4703006E-1,2.1656404E-1,-2.715659E-2,2.4025786E-1,2.3877159E-1,-4.7554385E-2,-5.6103833E-2,2.2961183E-1,-5.7181783E-2,1.7724782E-1,2.331625E-1,1.4678607E-2,1.3607273E-1,8.747411E-2,2.3983157E-1,1.1671137E-1,2.4299304E-1,-4.2063545E-2,2.4114661E-1,2.4887891E-1,7.926325E-2,1.8575327E-1,1.9435911E-1,-5.748824E-2,2.422478E-1,-4.691405E-2],"split_indices":[8,70,67,67,0,0,0,70,38,67,0,23,47,8,11,26,17,38,21,19,0,22,67,55,1,40,7,68,4,0,0,21,22,21,39,47,0,53,0,32,27,0,20,0,70,0,50,0,0,8,23,0,0,6,10,0,0,0,0,0,0,0,0,0,0,0,0,0,0,0,0,0,0,0,0,0,0,0,0,0,0,0,0,0,0,0,0,0,0,0,0],"split_type":[0,0,0,0,0,0,0,0,0,0,0,0,0,0,0,0,0,0,0,0,0,0,0,0,0,0,0,0,0,0,0,0,0,0,0,0,0,0,0,0,0,0,0,0,0,0,0,0,0,0,0,0,0,0,0,0,0,0,0,0,0,0,0,0,0,0,0,0,0,0,0,0,0,0,0,0,0,0,0,0,0,0,0,0,0,0,0,0,0,0,0],"sum_hessian":[5.01463E5,8.418738E4,4.1727562E5,6.275182E4,2.1435562E4,3.9698588E5,2.0289736E4,3.371995E4,2.9031871E4,2.0382682E4,1.0528804E3,3.7411156E5,2.2874338E4,7.0811797E3,1.3208557E4,3.1309514E4,2.4104353E3,1.1260203E4,1.7771668E4,2.03235E4,5.9181152E1,9.742238E1,9.5545807E2,3.7399897E5,1.1258092E2,1.9533363E4,3.340975E3,7.0007686E3,8.041105E1,1.3205758E4,2.7996097E0,2.2383146E4,8.926366E3,8.5440094E2,1.5560344E3,1.1081887E4,1.7831683E2,2.7907864E3,1.4980882E4,2.0287178E4,3.632366E1,5.1888256E0,9.223355E1,8.824536E2,7.3004425E1,2.5596625E5,1.1803273E5,7.788203E1,3.469889E1,1.9510084E4,2.3278778E1,3.2568716E3,8.4103615E1,6.9663604E3,3.4407974E1,1.1791843E1,6.861921E1,6.2639653E3,1.6119182E4,7.185461E2,8.20782E3,6.7565106E2,1.7874992E2,2.2832384E2,1.3277106E3,1.0663734E4,4.181521E2,6.900492E1,1.0931191E2,2.7762297E3,1.4556557E1,1.4865816E4,1.1506512E2,2.027827E4,8.907051E0,2.9716957E1,6.6067066E0,5.1312057E1,4.092149E1,7.505865E0,6.549856E1,1.1780078E5,2.3194493E2,4.442348E3,1.5067736E4,1.3098655E1,1.0180123E1,2.3712058E0,6.9639893E3,3.0397253E1,4.010722E0],"tree_param":{"num_deleted":"0","num_feature":"79","num_nodes":"91","size_leaf_vector":"1"}},{"base_weights":[-3.7349057E-1,-5.303461E-1,5.892803E-1,-5.3045567E-2,-5.059872E-1,3.6316252E0,-5.06676E-1,-5.2121204E-1,4.3511593E-1,-5.2439224E-2,3.684215E0,-5.3031003E-1,1.4494909E0,-4.4004533E-1,-5.2964043E-2,-4.7724828E-2,3.3414912E-1,3.7184492E-1,-5.02403E-1,-5.3047366E-2,6.2280655E-2,-4.846326E-1,3.6995018E0,-5.2301645E-2,2.0418155E-1,-5.2050926E-2,8.534206E-3,4.5886588E-1,-5.260641E-2,3.7227127E-1,7.144754E-2,2.2220452E-1,-4.1529357E-2],"categories":[],"categories_nodes":[],"categories_segments":[],"categories_sizes":[],"default_left":[0,0,0,0,0,0,0,0,0,0,0,0,0,0,0,0,0,0,0,0,0,0,0,0,0,0,0,0,0,0,0,0,0],"id":16,"left_children":[1,3,5,-1,7,9,11,13,15,-1,17,19,21,23,-1,-1,-1,-1,25,-1,-1,27,29,-1,-1,-1,-1,31,-1,-1,-1,-1,-1],"loss_changes":[2.7128717E4,1.40625E-1,8.391655E4,0E0,1.0446899E1,1.4587188E3,8.5620215E2,2.4743652E-1,3.315135E1,0E0,9.452344E2,3.7807617E0,9.641897E2,1.5891645E1,0E0,0E0,0E0,0E0,6.2191105E-1,0E0,0E0,4.9247E0,4.4310303E0,0E0,0E0,0E0,0E0,9.513747E0,0E0,0E0,0E0,0E0,0E0],"parents":[2147483647,0,0,1,1,2,2,4,4,5,5,6,6,7,7,8,8,10,10,11,11,12,12,13,13,18,18,21,21,22,22,27,27],"right_children":[2,4,6,-1,8,10,12,14,16,-1,18,20,22,24,-1,-1,-1,-1,26,-1,-1,28,30,-1,-1,-1,-1,32,-1,-1,-1,-1,-1],"split_conditions":[8.08E3,3E1,9.292E3,-5.3045567E-2,2.3241695E6,1.94E2,2E0,2.1E1,2.87E7,-5.2439224E-2,6.8568E4,2.84316E5,1.41E2,5.1389705E6,-5.2964043E-2,-4.7724828E-2,3.3414912E-1,3.7184492E-1,2.4E1,-5.3047366E-2,6.2280655E-2,1.0333333E1,7.3739E4,-5.2301645E-2,2.0418155E-1,-5.2050926E-2,8.534206E-3,3.7341E4,-5.260641E-2,3.7227127E-1,7.144754E-2,2.2220452E-1,-4.1529357E-2],"split_indices":[0,63,0,0,18,22,69,0,78,0,22,31,14,24,0,0,0,0,70,0,0,10,22,0,0,0,0,3,0,0,0,0,0],"split_type":[0,0,0,0,0,0,0,0,0,0,0,0,0,0,0,0,0,0,0,0,0,0,0,0,0,0,0,0,0,0,0,0,0],"sum_hessian":[1.7963838E5,1.544721E5,2.5166285E4,1.537598E5,7.122902E2,6.6642354E3,1.8502049E4,7.013896E2,1.090065E1,8.316291E1,6.5810723E3,1.82819E4,2.2014915E2,7.0986885E1,6.304027E2,8.9324E0,1.9682505E0,6.5278066E3,5.3265938E1,1.8279846E4,2.0540342E0,1.1880674E2,1.01342415E2,6.945422E1,1.5326612E0,5.178503E1,1.480905E0,4.573832E0,1.1423291E2,1.0031526E2,1.027154E0,1.0049422E0,3.56889E0],"tree_param":{"num_deleted":"0","num_feature":"79","num_nodes":"33","size_leaf_vector":"1"}},{"base_weights":[-5.295883E-1,-5.297605E-2,-4.1310912E-1,-4.8135784E-1,3.6269367E-1,-3.289849E-1,-5.273078E-2,-2.504327E-1,-5.01364E-2,-1.765144E-1,-2.7153116E-1,-2.8442284E-2,1.9012613E-2,-1.1521725E-3,-3.506877E-2],"categories":[],"categories_nodes":[],"categories_segments":[],"categories_sizes":[],"default_left":[0,0,0,0,0,0,0,0,0,0,0,0,0,0,0],"id":17,"left_children":[1,-1,3,5,-1,7,-1,9,-1,11,13,-1,-1,-1,-1],"loss_changes":[3.2539062E0,0E0,7.347843E1,1.6239433E0,0E0,7.158451E-1,0E0,2.1759272E-2,0E0,5.5969596E-1,6.7318463E-1,0E0,0E0,0E0,0E0],"parents":[2147483647,0,0,2,2,3,3,5,5,7,7,9,9,10,10],"right_children":[2,-1,4,6,-1,8,-1,10,-1,12,14,-1,-1,-1,-1],"split_conditions":[3.15E2,-5.297605E-2,6.9284E4,3.6621117E1,3.6269367E-1,4.2E7,-5.273078E-2,4.00025E6,-5.01364E-2,4.000229E6,2.136981E7,-2.8442284E-2,1.9012613E-2,-1.1521725E-3,-3.506877E-2],"split_indices":[55,0,66,16,0,25,0,71,0,74,75,0,0,0,0],"split_type":[0,0,0,0,0,0,0,0,0,0,0,0,0,0,0],"sum_hessian":[1.7319294E5,1.7293378E5,2.591571E2,2.557181E2,3.4390066E0,6.1138565E1,1.9457953E2,4.368456E1,1.7454008E1,1.1779918E1,3.190464E1,9.274518E0,2.5053997E0,7.713448E0,2.4191193E1],"tree_param":{"num_deleted":"0","num_feature":"79","num_nodes":"15","size_leaf_vector":"1"}},{"base_weights":[-5.298692E-1],"categories":[],"categories_nodes":[],"categories_segments":[],"categories_sizes":[],"default_left":[0],"id":18,"left_children":[-1],"loss_changes":[0E0],"parents":[2147483647],"right_children":[-1],"split_conditions":[-5.298692E-2],"split_indices":[0],"split_type":[0],"sum_hessian":[1.7318375E5],"tree_param":{"num_deleted":"0","num_feature":"79","num_nodes":"1","size_leaf_vector":"1"}},{"base_weights":[-1.7205541E-1,-5.313186E-2,2.3613355E0,3.6623268E0,-5.3127266E-2,1.0207325E-1,3.6761537E0,3.7332995E0,-5.218164E-2,-5.065897E-2,3.6814492E0,1.0853416E-1,3.974122E-1,-3.329331E-2,3.6818835E-1],"categories":[],"categories_nodes":[],"categories_segments":[],"categories_sizes":[],"default_left":[0,0,0,0,0,0,0,0,0,0,0,0,0,0,0],"id":19,"left_children":[1,-1,3,5,-1,7,9,11,-1,-1,13,-1,-1,-1,-1],"loss_changes":[1.7175108E5,0E0,8.820123E4,7.954219E2,0E0,1.4596417E2,3.585625E2,1.7085876E0,0E0,0E0,2.928125E1,0E0,0E0,0E0,0E0],"parents":[2147483647,0,0,2,2,3,3,5,5,6,6,7,7,10,10],"right_children":[2,-1,4,6,-1,8,10,12,-1,-1,14,-1,-1,-1,-1],"split_conditions":[3.2738E4,-5.313186E-2,1.23E2,3.05E2,-5.3127266E-2,3.2882E4,2.603195E1,5E0,-5.218164E-2,-5.065897E-2,5.3E1,1.0853416E-1,3.974122E-1,-3.329331E-2,3.6818835E-1],"split_indices":[67,0,0,3,0,67,38,25,0,0,0,0,0,0,0],"split_type":[0,0,0,0,0,0,0,0,0,0,0,0,0,0,0],"sum_hessian":[1.8870312E5,1.6526717E5,2.3435945E4,1.6165167E4,7.270779E3,6.256966E1,1.6102598E4,8.443284E0,5.4126377E1,2.024072E1,1.6082356E4,1.1629463E0,7.280338E0,1.657504E0,1.6080699E4],"tree_param":{"num_deleted":"0","num_feature":"79","num_nodes":"15","size_leaf_vector":"1"}},{"base_weights":[-5.2887094E-1,-5.29804E-1,1.4013624E0,-5.2991893E-2,-2.4787828E-1,-5.1918574E-2,3.9952126E-1,-5.2229047E-2,3.883015E-1],"categories":[],"categories_nodes":[],"categories_segments":[],"categories_sizes":[],"default_left":[0,0,0,0,0,0,0,0,0],"id":20,"left_children":[1,3,5,-1,7,-1,-1,-1,-1],"loss_changes":[3.1270703E2,5.4765625E0,4.2034784E2,0E0,8.4138145E1,0E0,0E0,0E0,0E0],"parents":[2147483647,0,0,1,1,2,2,4,4],"right_children":[2,4,6,-1,8,-1,-1,-1,-1],"split_conditions":[1.2E8,6.4898E4,4.333E3,-5.2991893E-2,2.1E1,-5.1918574E-2,3.9952126E-1,-5.2229047E-2,3.883015E-1],"split_indices":[22,4,4,0,0,0,0,0,0],"split_type":[0,0,0,0,0,0,0,0,0],"sum_hessian":[1.7322077E5,1.731378E5,8.2963455E1,1.7306636E5,7.1435104E1,4.8128105E1,3.483535E1,6.780447E1,3.6306362E0],"tree_param":{"num_deleted":"0","num_feature":"79","num_nodes":"9","size_leaf_vector":"1"}},{"base_weights":[-5.069621E-1,-5.2745324E-1,-2.7357712E-1,-5.2929294E-1,-3.7538224E-1,-5.3002305E-2,1.3463908E0,-5.299889E-2,-5.1571333E-1,3.6724226E0,-5.2975383E-2,3.0531757E0,-5.294797E-2,8.8619E-2,-5.2938414E-1,-2.7646413E-2,3.7382612E-1,3.4199257E0,-1.7930621E-1,-5.264901E-2,3.6728246E0,-5.299102E-2,-3.7959215E-1,3.6579108E0,-5.202195E-2,-5.2435882E-2,3.807547E-1,3.7689602E-1,7.124129E-2,1.1668997E-1,-5.1136076E-2,-5.1310133E-2,3.7041658E-1],"categories":[],"categories_nodes":[],"categories_segments":[],"categories_sizes":[],"default_left":[0,0,0,0,0,0,0,0,0,0,0,0,0,0,0,0,0,0,0,0,0,0,0,0,0,0,0,0,0,0,0,0,0],"id":21,"left_children":[1,3,5,7,9,-1,11,-1,13,15,-1,17,-1,19,21,-1,-1,23,25,-1,27,-1,29,31,-1,-1,-1,-1,-1,-1,-1,-1,-1],"loss_changes":[8.324297E2,4.458203E1,5.839164E3,1.2226562E0,1.1994453E3,0E0,6.152084E3,0E0,6.4041504E1,1.9369812E1,0E0,1.1932109E3,0E0,3.815882E2,3.959961E-1,0E0,0E0,8.491299E2,1.4431818E2,0E0,4.52948E0,0E0,6.716969E0,1.6631348E2,0E0,0E0,0E0,0E0,0E0,0E0,0E0,0E0,0E0],"parents":[2147483647,0,0,1,1,2,2,3,3,4,4,6,6,8,8,9,9,11,11,13,13,14,14,17,17,18,18,20,20,22,22,23,23],"right_children":[2,4,6,8,10,-1,12,-1,14,16,-1,18,-1,20,22,-1,-1,24,26,-1,28,-1,30,32,-1,-1,-1,-1,-1,-1,-1,-1,-1],"split_conditions":[6.689771E5,5.546314E2,3.2E1,2.1888889E2,9.74E2,-5.3002305E-2,1.23E2,-5.299889E-2,2.2585715E2,9.2E1,-5.2975383E-2,2.76E7,-5.294797E-2,1.46E4,6.13911E5,-2.7646413E-2,3.7382612E-1,4E1,1.6052942E2,-5.264901E-2,6.39E2,-5.299102E-2,3.9404506E5,5.3E1,-5.202195E-2,-5.2435882E-2,3.807547E-1,3.7689602E-1,7.124129E-2,1.1668997E-1,-5.1136076E-2,-5.1310133E-2,3.7041658E-1],"split_indices":[18,15,70,14,7,0,0,0,14,37,0,27,0,67,18,0,0,70,42,0,6,0,24,0,0,0,0,0,0,0,0,0,0],"split_type":[0,0,0,0,0,0,0,0,0,0,0,0,0,0,0,0,0,0,0,0,0,0,0,0,0,0,0,0,0,0,0,0,0],"sum_hessian":[1.7409444E5,1.600416E5,1.4052854E4,1.5812617E5,1.9154108E3,1.2132858E4,1.9199958E3,1.5038125E5,7.7449263E3,6.952753E1,1.8458833E3,1.004977E3,9.1501886E2,1.7120412E2,7.573722E3,1.0877355E0,6.843979E1,9.02521E2,1.02455956E2,1.4685455E2,2.4349566E1,7.5446885E3,2.903381E1,8.511813E2,5.1339756E1,9.509425E1,7.361702E0,2.3319185E1,1.0303798E0,1.6628011E0,2.7371008E1,9.225061E0,8.4195624E2],"tree_param":{"num_deleted":"0","num_feature":"79","num_nodes":"33","size_leaf_vector":"1"}},{"base_weights":[-2.8233266E-1,7.609063E-1,-5.1445526E-1,-5.307578E-2,3.5309875E0,-5.308765E-2,-3.5016793E-1,3.6854649E0,-5.2186286E-1,-5.1911247E-1,1.5730305E0,3.695567E-1,-5.100934E-2,2.4958445E-1,-5.2948486E-2,3.7160769E0,-5.3080518E-2,3.7123075E0,-5.298282E-2,-3.5743333E-2,8.993557E-2,3.9609715E-1,-3.4757253E-2,1.811266E-2,3.71927E-1],"categories":[],"categories_nodes":[],"categories_segments":[],"categories_sizes":[],"default_left":[0,0,0,0,0,0,0,0,0,0,0,0,0,0,0,0,0,0,0,0,0,0,0,0,0],"id":22,"left_children":[1,3,5,-1,7,-1,9,11,13,15,17,-1,-1,19,-1,21,-1,23,-1,-1,-1,-1,-1,-1,-1],"loss_changes":[4.4470418E4,1.1959264E5,4.050703E2,0E0,6.6565156E3,0E0,4.4369814E3,4.35875E2,2.432022E0,6.235354E2,4.9629414E3,0E0,0E0,2.0988507E0,0E0,3.5891357E1,0E0,1.277002E1,0E0,0E0,0E0,0E0,0E0,0E0,0E0],"parents":[2147483647,0,0,1,1,2,2,4,4,6,6,7,7,8,8,9,9,10,10,13,13,15,15,17,17],"right_children":[2,4,6,-1,8,-1,10,12,14,16,18,-1,-1,20,-1,22,-1,24,-1,-1,-1,-1,-1,-1,-1],"split_conditions":[1E0,3.2E1,4.061217E2,-5.307578E-2,1.0594E5,-5.308765E-2,2.4E1,1.23E2,1.786025E5,1E0,9.57E2,3.695567E-1,-5.100934E-2,5.3E1,-5.2948486E-2,1.23E2,-5.3080518E-2,1.16E2,-5.298282E-2,-3.5743333E-2,8.993557E-2,3.9609715E-1,-3.4757253E-2,1.811266E-2,3.71927E-1],"split_indices":[5,70,15,0,26,0,70,0,22,67,7,0,0,0,0,0,0,11,0,0,0,0,0,0,0],"split_type":[0,0,0,0,0,0,0,0,0,0,0,0,0,0,0,0,0,0,0,0,0,0,0,0,0],"sum_hessian":[1.8363855E5,3.3422777E4,1.5021577E5,2.2794646E4,1.0628131E4,1.3656342E5,1.36523545E4,1.0237993E4,3.9013803E2,1.2550572E4,1.1017826E3,1.021352E4,2.447314E1,3.50631E0,3.866317E2,3.368247E1,1.251689E4,5.457826E2,5.5600006E2,2.0454009E0,1.4609091E0,3.1791815E1,1.8906554E0,1.1271722E0,5.446554E2],"tree_param":{"num_deleted":"0","num_feature":"79","num_nodes":"25","size_leaf_vector":"1"}},{"base_weights":[-4.51436E-1,-5.18993E-1,1.8255684E0,-5.300637E-1,7.213837E-2,-4.025078E-1,2.2385259E0,-5.3015836E-2,-4.6921384E-1,-5.2993685E-2,2.2956152E0,-5.2358717E-2,-3.8874585E-2,-5.292988E-2,2.6410139E0,2.5775346E-1,-5.2828263E-2,1.5272741E0,3.233935E0,2.2024734E-1,3.2975829E0,2.580618E0,7.572232E-1,3.5251713E-1,2.5717597E0,3.082329E0,3.3502048E-1,3.5428345E-1,2.2502363E-1,5.235243E-3,2.1162224E-1,3.0360717E-1,1.2128744E-1,2.7768144E-1,3.436596E-1],"categories":[],"categories_nodes":[],"categories_segments":[],"categories_sizes":[],"default_left":[0,0,0,0,0,0,0,0,0,0,0,0,0,0,0,0,0,0,0,0,0,0,0,0,0,0,0,0,0,0,0,0,0,0,0],"id":23,"left_children":[1,3,5,7,9,11,13,-1,15,-1,17,-1,-1,-1,19,-1,-1,21,23,-1,25,27,29,-1,31,33,-1,-1,-1,-1,-1,-1,-1,-1,-1],"loss_changes":[2.7093273E4,1.1194102E3,4.670451E3,7.1875E-1,4.2119043E3,1.1201324E0,4.7712285E3,0E0,4.9855297E1,0E0,4.7839087E2,0E0,0E0,0E0,1.0690996E3,0E0,0E0,2.9855585E2,4.896704E1,0E0,6.607422E0,4.1634766E1,2.062608E2,0E0,5.66485E1,2.3596436E1,0E0,0E0,0E0,0E0,0E0,0E0,0E0,0E0,0E0],"parents":[2147483647,0,0,1,1,2,2,3,3,4,4,5,5,6,6,8,8,10,10,14,14,17,17,18,18,20,20,21,21,22,22,24,24,25,25],"right_children":[2,4,6,8,10,12,14,-1,16,-1,18,-1,-1,-1,20,-1,-1,22,24,-1,26,28,30,-1,32,34,-1,-1,-1,-1,-1,-1,-1,-1,-1],"split_conditions":[2E5,2.9411766E4,2E0,2.5E4,4E1,4E1,4E1,-5.3015836E-2,2.2E1,-5.2993685E-2,2.0500435E1,-5.2358717E-2,-3.8874585E-2,-5.292988E-2,3E0,2.5775346E-1,-5.2828263E-2,1.7E1,2.4E1,2.2024734E-1,6.666667E5,7E0,2E1,3.5251713E-1,3.846154E4,5E0,3.3502048E-1,3.5428345E-1,2.2502363E-1,5.235243E-3,2.1162224E-1,3.0360717E-1,1.2128744E-1,2.7768144E-1,3.436596E-1],"split_indices":[39,39,18,39,70,36,36,0,0,0,21,0,0,0,3,0,0,21,20,0,17,3,20,0,39,3,0,0,0,0,0,0,0,0,0],"split_type":[0,0,0,0,0,0,0,0,0,0,0,0,0,0,0,0,0,0,0,0,0,0,0,0,0,0,0,0,0,0,0,0,0,0,0],"sum_hessian":[1.7612034E5,1.710463E5,5.0740435E3,1.6790195E5,3.1443552E3,7.933916E2,4.280652E3,1.6763348E5,2.6845743E2,2.474948E3,6.6940717E2,7.719299E1,7.161986E2,5.4341174E2,3.7372402E3,4.2948394E0,2.641626E2,3.694839E2,2.9992328E2,2.2432593E3,1.4939807E3,1.5504643E2,2.1443747E2,2.0530362E2,9.461966E1,3.0518204E2,1.1887987E3,3.714383E1,1.179026E2,1.4188477E2,7.2552704E1,6.960304E1,2.501662E1,1.6861179E2,1.3657025E2],"tree_param":{"num_deleted":"0","num_feature":"79","num_nodes":"35","size_leaf_vector":"1"}},{"base_weights":[-5.23819E-1,-5.276987E-1,1.2107418E0,-5.2810115E-1,-3.7346852E-1,-5.2764352E-2,3.5795903E0,-5.2935296E-1,-4.940131E-1,4.0129128E-1,-5.10747E-1,-4.4718403E-2,3.7189953E0,-5.294427E-1,1.5556453E-1,-5.2990563E-2,2.0243266E0,-5.288242E-2,2.2582638E-1,3.7488148E-1,-2.987641E-2,-5.295204E-1,1.0055825E-2,-5.0349332E-2,3.872563E-1,3.137807E0,-5.105712E-2,-5.2961558E-2,-4.699881E-2,-5.0657667E-2,3.4971794E-1,3.657272E-1,-4.803588E-2],"categories":[],"categories_nodes":[],"categories_segments":[],"categories_sizes":[],"default_left":[0,0,0,0,0,0,0,0,0,0,0,0,0,0,0,0,0,0,0,0,0,0,0,0,0,0,0,0,0,0,0,0,0],"id":24,"left_children":[1,3,5,7,9,-1,11,13,15,-1,17,-1,19,21,23,-1,25,-1,-1,-1,-1,27,29,-1,-1,31,-1,-1,-1,-1,-1,-1,-1],"loss_changes":[1.1676523E3,1.0542969E1,1.5968469E3,7.1015625E0,2.7530457E2,0E0,9.375879E1,1.03125E1,5.5499146E2,0E0,2.3264343E1,0E0,2.0130615E1,6.984375E0,5.7261055E1,0E0,2.4524826E2,0E0,0E0,0E0,0E0,6.9140625E-1,4.670258E1,0E0,0E0,1.1474518E2,0E0,0E0,0E0,0E0,0E0,0E0,0E0],"parents":[2147483647,0,0,1,1,2,2,3,3,4,4,6,6,7,7,8,8,10,10,12,12,13,13,14,14,16,16,21,21,22,22,25,25],"right_children":[2,4,6,8,10,-1,12,14,16,-1,18,-1,20,22,24,-1,26,-1,-1,-1,-1,28,30,-1,-1,32,-1,-1,-1,-1,-1,-1,-1],"split_conditions":[3.4559584E7,1.4259259E6,5.6E1,4.36066E5,1.2E1,-5.2764352E-2,3.2E1,5.63E7,1.12E2,4.0129128E-1,3.148011E2,-4.4718403E-2,2.843E3,8.876838E7,2.4E1,-5.2990563E-2,3.484219E6,-5.288242E-2,2.2582638E-1,3.7488148E-1,-2.987641E-2,4.00025E6,5.472286E7,-5.0349332E-2,3.872563E-1,2.92E4,-5.105712E-2,-5.2961558E-2,-4.699881E-2,-5.0657667E-2,3.4971794E-1,3.657272E-1,-4.803588E-2],"split_indices":[28,16,37,21,6,0,70,23,36,0,15,0,6,75,37,0,3,0,0,0,0,71,29,0,0,67,0,0,0,0,0,0,0],"split_type":[0,0,0,0,0,0,0,0,0,0,0,0,0,0,0,0,0,0,0,0,0,0,0,0,0,0,0,0,0,0,0,0,0],"sum_hessian":[1.734162E5,1.7302989E5,3.8631647E2,1.725771E5,4.527944E2,2.2325644E2,1.6306001E2,1.6644997E5,6.1271255E3,1.2884108E1,4.399103E2,5.3822913E0,1.5767772E2,1.6642839E5,2.1578629E1,6.0418047E3,8.5321014E1,4.378608E2,2.0494998E0,1.5658252E2,1.0952097E0,1.6640445E5,2.3940031E1,1.9063107E1,2.5155203E0,5.9115894E1,2.6205116E1,1.6613097E5,2.7348425E2,2.159532E1,2.3447113E0,5.168465E1,7.431244E0],"tree_param":{"num_deleted":"0","num_feature":"79","num_nodes":"33","size_leaf_vector":"1"}},{"base_weights":[-4.2174616E-1,-5.1615E-1,2.5100358E0,-5.294059E-1,2.5472078E-1,-5.2943982E-2,2.8217506E0,-5.3019494E-1,-2.5795203E-1,2.513406E0,-5.299763E-2,3.1536968E0,1.3319274E0,-5.302598E-2,-4.8782447E-1,-5.2917797E-2,1.850181E0,8.509228E-2,2.7906575E0,3.6895594E-1,2.832727E-1,2.2587855E-1,1.1448701E-1,1.8366416E0,-5.283959E-2,2.0768101E0,1.065015E-1,3.521017E0,1.6718675E0,8.415728E-2,2.393215E-1,1.7287998E-1,3.4331474E-1,2.7576098E-1,3.8828436E-1,1.3790056E-1,3.2997772E-1],"categories":[],"categories_nodes":[],"categories_segments":[],"categories_sizes":[],"default_left":[0,0,0,0,0,0,0,0,0,0,0,0,0,0,0,0,0,0,0,0,0,0,0,0,0,0,0,0,0,0,0,0,0,0,0,0,0],"id":25,"left_children":[1,3,5,7,9,-1,11,13,15,17,-1,19,21,-1,23,-1,25,-1,27,-1,-1,-1,-1,29,-1,31,-1,33,35,-1,-1,-1,-1,-1,-1,-1,-1],"loss_changes":[4.9088613E4,1.7559414E3,5.243672E3,3.604297E1,5.150876E3,0E0,2.477625E3,2.03125E-1,2.820116E2,3.4299902E2,0E0,6.952969E2,1.5625122E2,0E0,2.641867E1,0E0,7.7973022E0,0E0,5.1851074E2,0E0,0E0,0E0,0E0,6.7339325E-1,0E0,1.4171753E1,0E0,9.62959E1,1.17203674E2,0E0,0E0,0E0,0E0,0E0,0E0,0E0,0E0],"parents":[2147483647,0,0,1,1,2,2,3,3,4,4,6,6,7,7,8,8,9,9,11,11,12,12,14,14,16,16,18,18,23,23,25,25,27,27,28,28],"right_children":[2,4,6,8,10,-1,12,14,16,18,-1,20,22,-1,24,-1,26,-1,28,-1,-1,-1,-1,30,-1,32,-1,34,36,-1,-1,-1,-1,-1,-1,-1,-1],"split_conditions":[2.5E5,3.846154E4,4E1,2.9411766E4,2.2E1,-5.2943982E-2,3E0,2.5E4,4E1,7E0,-5.299763E-2,2E0,6.666667E5,-5.302598E-2,2.2E1,-5.2917797E-2,3.2E1,8.509228E-2,2E1,3.6895594E-1,2.832727E-1,2.2587855E-1,1.1448701E-1,3.6E1,-5.283959E-2,3.0837547E1,1.065015E-1,1.7E1,2.4E1,8.415728E-2,2.393215E-1,1.7287998E-1,3.4331474E-1,2.7576098E-1,3.8828436E-1,1.3790056E-1,3.2997772E-1],"split_indices":[39,39,36,39,0,0,3,39,70,3,0,3,17,0,0,0,3,0,20,0,0,0,0,21,0,21,0,21,20,0,0,0,0,0,0,0,0],"split_type":[0,0,0,0,0,0,0,0,0,0,0,0,0,0,0,0,0,0,0,0,0,0,0,0,0,0,0,0,0,0,0,0,0,0,0,0,0],"sum_hessian":[1.7735589E5,1.7182395E5,5.5319336E3,1.6891953E5,2.904434E3,5.144946E2,5.017439E3,1.6842902E5,4.9050436E2,7.483031E2,2.156131E3,4.1022944E3,9.1514465E2,1.6816017E5,2.6884464E2,4.352548E2,5.524957E1,1.07538635E2,6.407644E2,1.5327892E3,2.5695051E3,1.5181837E2,7.6332623E2,3.8525107E0,2.6499213E2,4.1597786E1,1.365178E1,3.8638232E2,2.5438211E2,2.2829692E0,1.5695413E0,3.4914104E1,6.683684E0,1.27016106E2,2.593662E2,2.171617E2,3.7220413E1],"tree_param":{"num_deleted":"0","num_feature":"79","num_nodes":"37","size_leaf_vector":"1"}},{"base_weights":[-4.3861297E-1,-2.065415E-1,-4.761897E-1,-3.1580454E-1,2.723594E-1,-5.1421136E-1,-3.6882263E-1,-5.228708E-1,-2.398255E-1,-2.9291707E-1,1.7354305E0,-2.7485216E-1,-5.2407086E-1,-1.8888168E-1,-4.222277E-1,-5.243407E-1,1.6740764E-2,-2.4349594E-1,2.2296715E0,-3.5517183E-1,5.170117E-1,1.8786753E0,-1.8863772E-1,-2.800915E-1,1.2286425E0,-5.2751696E-1,-3.1318268E-1,-3.6311632E-1,5.5303377E-1,-4.2415E-1,2.7668808E0,-5.248947E-1,1.4061989E-1,-2.4671385E-1,8.0436575E-1,-2.6885107E-2,-2.4732044E-1,1.9460572E-2,2.3269634E0,-3.621968E-1,1.062007E0,7.689824E-1,-4.9819458E-1,1.5143093E0,2.4256978E0,-2.746248E-1,5.1790076E-1,-2.5049397E-1,-5.1324254E-1,2.331933E0,7.5863777E-3,-5.2829057E-1,-3.227674E-1,-5.09916E-1,4.9989656E-1,-3.8422337E-1,2.489575E0,2.5196934E0,5.2312756E-1,-3.6948758E-1,-5.2863526E-1,2.9563742E0,1.301347E-2,-4.946219E-2,-5.2986424E-2,7.586559E-2,-3.797812E-2,5.909856E-2,-3.9372545E-2,9.8187655E-2,1.8200045E-2,-1.60479E-2,1.3211991E-2,-2.5228119E-2,-9.74525E-3,1.9257587E-1,3.6532187E-1,-2.6036063E-2,-4.385325E-2,2.2381197E-1,-4.6000406E-2,1.1315425E-1,2.1266108E-2,-5.1856466E-2,-1.0342016E-2,-3.472965E-2,1.53415E-1,2.4702242E-1,3.286129E-2,1.2549943E-1,-3.2044794E-2,-3.938885E-2,9.3952216E-2,-2.8792758E-2,-2.4525803E-3,-5.1521808E-2,2.1931853E-2,2.937927E-1,-3.1247599E-2,-3.1702396E-2,1.0381043E-1,-5.2852422E-2,-3.650542E-2,-5.287186E-2,7.1752876E-2,-5.1275533E-2,1.3084947E-1,9.928223E-2,-6.692767E-3,-5.2998293E-2,-1.6179724E-2,2.588254E-1,-3.4435008E-2,2.6602057E-1,3.8021866E-2,6.627169E-2,3.552562E-2,-3.7212286E-2,2.5075528E-1,-5.291112E-2,1.879419E-1,6.310322E-2,3.08697E-1],"categories":[],"categories_nodes":[],"categories_segments":[],"categories_sizes":[],"default_left":[0,0,0,0,0,0,0,0,0,0,0,0,0,0,0,0,0,0,0,0,0,0,0,0,0,0,0,0,0,0,0,0,0,0,0,0,0,0,0,0,0,0,0,0,0,0,0,0,0,0,0,0,0,0,0,0,0,0,0,0,0,0,0,0,0,0,0,0,0,0,0,0,0,0,0,0,0,0,0,0,0,0,0,0,0,0,0,0,0,0,0,0,0,0,0,0,0,0,0,0,0,0,0,0,0,0,0,0,0,0,0,0,0,0,0,0,0,0,0,0,0,0,0],"id":26,"left_children":[1,3,5,7,9,11,13,15,17,19,21,23,25,27,29,31,33,35,37,39,41,43,45,47,49,51,53,55,57,59,61,63,65,67,69,71,73,-1,75,77,79,81,83,85,87,89,91,93,95,97,99,101,103,105,107,109,111,113,115,117,119,121,-1,-1,-1,-1,-1,-1,-1,-1,-1,-1,-1,-1,-1,-1,-1,-1,-1,-1,-1,-1,-1,-1,-1,-1,-1,-1,-1,-1,-1,-1,-1,-1,-1,-1,-1,-1,-1,-1,-1,-1,-1,-1,-1,-1,-1,-1,-1,-1,-1,-1,-1,-1,-1,-1,-1,-1,-1,-1,-1,-1,-1],"loss_changes":[1.5373398E3,1.285753E3,6.1922266E2,3.146277E2,3.775899E3,2.6428906E2,3.8127637E2,4.2677E0,1.3322174E2,1.6625351E2,3.5102808E2,3.5279694E1,7.8041016E1,1.174492E3,1.8876709E2,2.0466309E0,3.4262624E0,1.2102539E1,3.867897E0,3.0839996E1,6.062409E1,2.323711E2,5.5534964E0,3.0375122E1,2.0980516E1,1.6601562E1,2.7741708E2,4.43945E2,1.0031732E2,1.7447998E2,8.892136E0,5.428467E-1,1.9755808E0,1.7624431E0,2.7797794E-1,5.432045E0,1.0653748E1,0E0,3.9981384E0,2.3554993E1,2.8495306E1,3.7893562E1,3.2781792E-1,2.688501E1,4.324292E1,6.0136757E0,4.21835E0,3.3188614E1,8.322296E-1,1.4034451E1,3.139646E0,3.8339844E0,8.6322716E1,7.876526E0,9.452456E1,2.3671509E2,1.6039703E1,6.6911163E0,3.968091E1,1.5319336E2,1.3030762E1,3.2983856E0,0E0,0E0,0E0,0E0,0E0,0E0,0E0,0E0,0E0,0E0,0E0,0E0,0E0,0E0,0E0,0E0,0E0,0E0,0E0,0E0,0E0,0E0,0E0,0E0,0E0,0E0,0E0,0E0,0E0,0E0,0E0,0E0,0E0,0E0,0E0,0E0,0E0,0E0,0E0,0E0,0E0,0E0,0E0,0E0,0E0,0E0,0E0,0E0,0E0,0E0,0E0,0E0,0E0,0E0,0E0,0E0,0E0,0E0,0E0,0E0,0E0],"parents":[2147483647,0,0,1,1,2,2,3,3,4,4,5,5,6,6,7,7,8,8,9,9,10,10,11,11,12,12,13,13,14,14,15,15,16,16,17,17,18,18,19,19,20,20,21,21,22,22,23,23,24,24,25,25,26,26,27,27,28,28,29,29,30,30,31,31,32,32,33,33,34,34,35,35,36,36,38,38,39,39,40,40,41,41,42,42,43,43,44,44,45,45,46,46,47,47,48,48,49,49,50,50,51,51,52,52,53,53,54,54,55,55,56,56,57,57,58,58,59,59,60,60,61,61],"right_children":[2,4,6,8,10,12,14,16,18,20,22,24,26,28,30,32,34,36,38,40,42,44,46,48,50,52,54,56,58,60,62,64,66,68,70,72,74,-1,76,78,80,82,84,86,88,90,92,94,96,98,100,102,104,106,108,110,112,114,116,118,120,122,-1,-1,-1,-1,-1,-1,-1,-1,-1,-1,-1,-1,-1,-1,-1,-1,-1,-1,-1,-1,-1,-1,-1,-1,-1,-1,-1,-1,-1,-1,-1,-1,-1,-1,-1,-1,-1,-1,-1,-1,-1,-1,-1,-1,-1,-1,-1,-1,-1,-1,-1,-1,-1,-1,-1,-1,-1,-1,-1,-1,-1],"split_conditions":[1E0,8E1,1.23E2,1.93E2,1E0,0E0,4.45E2,2.92E4,2.4E1,5.3433E4,1.403E3,4E0,2.8515908E6,1E0,1.42E3,5.3E1,2.2E1,2.9E1,2.3862219E1,1.1E2,5.647E4,2.35E2,1E0,5.6317736E7,2.1E1,1.25333336E2,1E0,3.2E1,4.43E2,7.25E2,6.39E2,3.2E1,1.7E1,2.1E1,2.4E1,2.8E1,4.009623E3,1.9460572E-2,3.1E7,2.3862219E1,1.58E2,2.5E1,2.0925553E5,2.4E1,8.61E2,3E0,1.2121212E4,1.89554E5,4.08E2,7.7903E4,1.18E2,2.1677777E2,1E0,1.4998565E7,1.0001003E7,1E0,1.39E2,3.3E2,1.0001003E7,1E0,6.203167E6,2.266E2,1.301347E-2,-4.946219E-2,-5.2986424E-2,7.586559E-2,-3.797812E-2,5.909856E-2,-3.9372545E-2,9.8187655E-2,1.8200045E-2,-1.60479E-2,1.3211991E-2,-2.5228119E-2,-9.74525E-3,1.9257587E-1,3.6532187E-1,-2.6036063E-2,-4.385325E-2,2.2381197E-1,-4.6000406E-2,1.1315425E-1,2.1266108E-2,-5.1856466E-2,-1.0342016E-2,-3.472965E-2,1.53415E-1,2.4702242E-1,3.286129E-2,1.2549943E-1,-3.2044794E-2,-3.938885E-2,9.3952216E-2,-2.8792758E-2,-2.4525803E-3,-5.1521808E-2,2.1931853E-2,2.937927E-1,-3.1247599E-2,-3.1702396E-2,1.0381043E-1,-5.2852422E-2,-3.650542E-2,-5.287186E-2,7.1752876E-2,-5.1275533E-2,1.3084947E-1,9.928223E-2,-6.692767E-3,-5.2998293E-2,-1.6179724E-2,2.588254E-1,-3.4435008E-2,2.6602057E-1,3.8021866E-2,6.627169E-2,3.552562E-2,-3.7212286E-2,2.5075528E-1,-5.291112E-2,1.879419E-1,6.310322E-2,3.08697E-1],"split_indices":[22,0,0,18,48,67,0,67,36,0,67,5,19,47,12,0,18,6,21,13,0,20,47,25,0,55,47,70,0,8,26,36,1,0,20,6,38,0,27,21,7,3,20,70,21,3,21,26,7,26,13,54,47,71,77,49,0,21,77,34,73,54,0,0,0,0,0,0,0,0,0,0,0,0,0,0,0,0,0,0,0,0,0,0,0,0,0,0,0,0,0,0,0,0,0,0,0,0,0,0,0,0,0,0,0,0,0,0,0,0,0,0,0,0,0,0,0,0,0,0,0,0,0],"split_type":[0,0,0,0,0,0,0,0,0,0,0,0,0,0,0,0,0,0,0,0,0,0,0,0,0,0,0,0,0,0,0,0,0,0,0,0,0,0,0,0,0,0,0,0,0,0,0,0,0,0,0,0,0,0,0,0,0,0,0,0,0,0,0,0,0,0,0,0,0,0,0,0,0,0,0,0,0,0,0,0,0,0,0,0,0,0,0,0,0,0,0,0,0,0,0,0,0,0,0,0,0,0,0,0,0,0,0,0,0,0,0,0,0,0,0,0,0,0,0,0,0,0,0],"sum_hessian":[1.7630089E5,2.4569246E4,1.5173164E5,2.0005303E4,4.563945E3,1.120484E5,3.9683242E4,5.3685293E3,1.4636772E4,3.2926042E3,1.2713406E3,4.433968E3,1.0761443E5,9.083203E3,3.060004E4,5.3539736E3,1.4555473E1,1.461595E4,2.0822443E1,3.058106E3,2.3449829E2,1.1832709E3,8.80697E1,4.419381E3,1.4586791E1,1.05882734E5,1.7316989E3,7.356161E3,1.7270422E3,3.0582473E4,1.7566849E1,5.349727E3,4.246636E0,1.1421747E1,3.133726E0,2.5372261E2,1.4362228E4,1.0869446E0,1.9735498E1,3.0437625E3,1.4343516E1,1.88064E2,4.6434303E1,7.1247003E2,4.7080084E2,7.905934E1,9.010363E0,3.9233972E3,4.959837E2,7.184993E0,7.4017982E0,1.0548259E5,4.001354E2,1.3946267E3,3.370722E2,7.302991E3,5.316948E1,2.4622051E1,1.7024203E3,2.0081299E4,1.0501173E4,1.6275934E1,1.2909138E0,7.685493E2,4.5811777E3,1.7319351E0,2.5147007E0,1.2543327E0,1.0167415E1,1.9888217E0,1.1449041E0,1.378737E2,1.1584891E2,1.3901397E4,4.6083017E2,1.7034445E1,2.7010536E0,1.3059552E3,1.7378073E3,7.8257647E0,6.517752E0,1.13234184E2,7.48298E1,4.3857704E1,2.576598E0,7.3392215E0,7.051308E2,4.6083817E2,9.962671E0,1.5319993E0,7.752734E1,2.8698545E0,6.1405087E0,3.3655847E3,5.5781256E2,4.9494565E2,1.0380672E0,5.7551455E0,1.4298471E0,6.1552696E0,1.2465285E0,1.0532959E5,1.529992E2,3.344207E2,6.57147E1,1.3931694E3,1.4572896E0,1.798865E2,1.5718571E2,4.4110044E3,2.8919868E3,5.1464157E1,1.7053213E0,2.2876238E1,1.745813E0,9.2789966E2,7.7452057E2,2.0063791E4,1.7507158E1,1.0499878E4,1.2949691E0,1.1755977E0,1.5100336E1],"tree_param":{"num_deleted":"0","num_feature":"79","num_nodes":"123","size_leaf_vector":"1"}},{"base_weights":[-5.299094E-1],"categories":[],"categories_nodes":[],"categories_segments":[],"categories_sizes":[],"default_left":[0],"id":27,"left_children":[-1],"loss_changes":[0E0],"parents":[2147483647],"right_children":[-1],"split_conditions":[-5.299094E-2],"split_indices":[0],"split_type":[0],"sum_hessian":[1.7318244E5],"tree_param":{"num_deleted":"0","num_feature":"79","num_nodes":"1","size_leaf_vector":"1"}},{"base_weights":[-5.298979E-1],"categories":[],"categories_nodes":[],"categories_segments":[],"categories_sizes":[],"default_left":[0],"id":28,"left_children":[-1],"loss_changes":[0E0],"parents":[2147483647],"right_children":[-1],"split_conditions":[-5.2989792E-2],"split_indices":[0],"split_type":[0],"sum_hessian":[1.7318283E5],"tree_param":{"num_deleted":"0","num_feature":"79","num_nodes":"1","size_leaf_vector":"1"}},{"base_weights":[-4.2567605E-1,-4.739861E-1,2.8675144E0,-5.242776E-1,9.7512895E-1,3.709536E0,-5.292362E-2,-5.281583E-1,9.1235197E-1,-5.294126E-2,3.6497805E0,3.7108973E-1,6.476027E-2,-5.2996427E-1,-1.7114484E-1,3.716203E0,-5.2859616E-2,3.7102345E-1,-5.1297642E-2,-5.3014185E-2,-4.8564705E-1,-5.2970696E-2,3.5848608E0,3.7290597E-1,1.0870065E-1,-5.2949805E-2,1.2809686E-1,3.7294233E-1,-3.799204E-2],"categories":[],"categories_nodes":[],"categories_segments":[],"categories_sizes":[],"default_left":[0,0,0,0,0,0,0,0,0,0,0,0,0,0,0,0,0,0,0,0,0,0,0,0,0,0,0,0,0],"id":29,"left_children":[1,3,5,7,9,11,-1,13,15,-1,17,-1,-1,19,21,23,-1,-1,-1,-1,25,-1,27,-1,-1,-1,-1,-1,-1],"loss_changes":[2.8230467E4,1.2744879E4,7.3394863E3,9.4271484E2,2.3606355E4,6.1660156E0,0E0,1.0858203E2,1.8429421E3,0E0,5.333594E2,0E0,0E0,1.0625E0,1.1464056E3,1.1794434E0,0E0,0E0,0E0,0E0,5.3435913E1,0E0,4.3937317E1,0E0,0E0,0E0,0E0,0E0,0E0],"parents":[2147483647,0,0,1,1,2,2,3,3,4,4,5,5,7,7,8,8,10,10,13,13,14,14,15,15,20,20,22,22],"right_children":[2,4,6,8,10,12,-1,14,16,-1,18,-1,-1,20,22,24,-1,-1,-1,-1,26,-1,28,-1,-1,-1,-1,-1,-1],"split_conditions":[7.12E2,1.1111111E5,5.3E1,5.32E2,2.4E1,4.0618438E4,-5.292362E-2,5.263158E4,5.3E1,-5.294126E-2,5.3E1,3.7108973E-1,6.476027E-2,3.846154E4,2.4E1,4.2264825E5,-5.2859616E-2,3.7102345E-1,-5.1297642E-2,-5.3014185E-2,2.4E1,-5.2970696E-2,5.3E1,3.7290597E-1,1.0870065E-1,-5.2949805E-2,1.2809686E-1,3.7294233E-1,-3.799204E-2],"split_indices":[36,39,0,36,37,19,0,39,0,0,0,0,0,39,37,27,0,0,0,0,37,0,0,0,0,0,0,0,0],"split_type":[0,0,0,0,0,0,0,0,0,0,0,0,0,0,0,0,0,0,0,0,0,0,0,0,0,0,0,0,0],"sum_hessian":[1.774355E5,1.7487105E5,2.5644453E3,1.6900633E5,5.8647295E3,2.054951E3,5.094945E2,1.6855166E5,4.546645E2,3.753895E3,2.1108342E3,2.053826E3,1.1249332E0,1.6770284E5,8.488215E2,1.5380531E2,3.0085916E2,2.0807253E3,3.0108839E1,1.6702281E5,6.8002655E2,7.7563544E2,7.3186035E1,1.5264058E2,1.1647321E0,6.642391E2,1.5787483E1,7.06687E1,2.5173342E0],"tree_param":{"num_deleted":"0","num_feature":"79","num_nodes":"29","size_leaf_vector":"1"}},{"base_weights":[1.7655708E0,9.9869883E-1,1.9075755E0,1.4085891E0,-4.0813026E-1,1.9402503E0,1.2219248E0,1.8840084E0,7.9530746E-1,-5.505892E-1,1.821706E0,1.9567776E0,1.6618625E0,-5.2389836E-1,1.9705405E0,1.922135E0,1.3660973E0,1.9384536E0,-7.59524E-2,-5.5963796E-1,1.9154546E-1,1.0672048E0,1.8923537E0,1.9571934E0,3.4727144E-1,-5.677795E-1,1.9465752E0,-5.6315404E-1,1.1429783E0,1.970673E-1,9.8941796E-2,1.9499683E0,1.8507243E0,1.5019276E0,1.1323683E0,1.9510267E0,1.2033584E0,1.8881613E0,-5.312996E-1,-5.644225E-1,1.6025015E0,1.8694936E-1,1.0012529E0,1.9518042E0,1.1157011E0,1.9719912E-1,1.9254205E0,-5.6254964E-2,1.950342E-1,-5.6972742E-2,1.3762608E-1,1.9556037E0,-4.2664018E-1,-5.659507E-1,1.2551651E0,-3.3392113E-1,1.7920641E0,1.8943487E-1,1.9631177E-1,4.0308185E-2,1.9496256E-1,1.3931835E-1,1.5152131E-1,1.0663327E-1,1.3883698E-1,1.958838E-1,1.7454158E-1,-2.6041081E-2,1.9093037E-1,1.8982577E-1,-4.652308E-2,-5.478338E-2,2.7410623E-1,-5.6558687E-2,1.4695892E-1,1.8758185E-1,1.3161826E-2,1.16581276E-1,7.678699E-2,1.958009E-1,1.4083476E-1,2.0805426E-1,9.985226E-2,1.9299674E-1,2.3005796E-5,1.6197734E-1,1.9586523E-1,8.738672E-2,-5.6390494E-2,-5.6964397E-2,5.7267196E-2,-4.1135814E-2,1.7847304E-1,1.835237E-1,-5.356723E-2,-5.680585E-3,1.9331862E-1],"categories":[],"categories_nodes":[],"categories_segments":[],"categories_sizes":[],"default_left":[0,0,0,0,0,0,0,0,0,0,0,0,0,0,0,0,0,0,0,0,0,0,0,0,0,0,0,0,0,0,0,0,0,0,0,0,0,0,0,0,0,0,0,0,0,0,0,0,0,0,0,0,0,0,0,0,0,0,0,0,0,0,0,0,0,0,0,0,0,0,0,0,0,0,0,0,0,0,0,0,0,0,0,0,0,0,0,0,0,0,0,0,0,0,0,0,0],"id":30,"left_children":[1,3,5,7,9,11,13,15,17,19,21,23,25,27,29,31,33,35,37,39,-1,41,43,45,47,49,51,53,55,-1,-1,57,59,61,63,65,67,69,71,73,75,-1,77,79,81,-1,83,-1,-1,-1,-1,85,87,89,91,93,95,-1,-1,-1,-1,-1,-1,-1,-1,-1,-1,-1,-1,-1,-1,-1,-1,-1,-1,-1,-1,-1,-1,-1,-1,-1,-1,-1,-1,-1,-1,-1,-1,-1,-1,-1,-1,-1,-1,-1,-1],"loss_changes":[6.31595E4,5.2257492E4,1.09615E4,2.0459469E4,6.4962217E3,2.145875E3,2.9097953E4,7.779531E2,3.0523467E4,4.2995703E2,6.3442627E1,2.945E2,1.6622977E4,4.378954E2,7.8125E-2,6.9578125E1,8.4461426E1,1.2016406E2,1.5556018E4,1.9901172E2,0E0,3.8131409E0,4.9612305E1,2.03625E2,1.6899063E2,1.2014648E1,4.9835156E2,3.3912598E1,1.4830498E2,0E0,0E0,1.56484375E1,1.4803828E3,3.642578E-1,1.5451538E1,1.7511719E1,2.3353082E2,7.866406E1,7.654756E2,4.6089844E1,1.6856628E1,0E0,3.0003967E0,7.512207E-1,7.203415E0,0E0,1.2264375E3,0E0,0E0,0E0,0E0,2.0507812E1,1.6348543E1,2.774414E1,9.857351E0,2.1939114E1,2.8078766E1,0E0,0E0,0E0,0E0,0E0,0E0,0E0,0E0,0E0,0E0,0E0,0E0,0E0,0E0,0E0,0E0,0E0,0E0,0E0,0E0,0E0,0E0,0E0,0E0,0E0,0E0,0E0,0E0,0E0,0E0,0E0,0E0,0E0,0E0,0E0,0E0,0E0,0E0,0E0,0E0],"parents":[2147483647,0,0,1,1,2,2,3,3,4,4,5,5,6,6,7,7,8,8,9,9,10,10,11,11,12,12,13,13,14,14,15,15,16,16,17,17,18,18,19,19,21,21,22,22,23,23,24,24,25,25,26,26,27,27,28,28,31,31,32,32,33,33,34,34,35,35,36,36,37,37,38,38,39,39,40,40,42,42,43,43,44,44,46,46,51,51,52,52,53,53,54,54,55,55,56,56],"right_children":[2,4,6,8,10,12,14,16,18,20,22,24,26,28,30,32,34,36,38,40,-1,42,44,46,48,50,52,54,56,-1,-1,58,60,62,64,66,68,70,72,74,76,-1,78,80,82,-1,84,-1,-1,-1,-1,86,88,90,92,94,96,-1,-1,-1,-1,-1,-1,-1,-1,-1,-1,-1,-1,-1,-1,-1,-1,-1,-1,-1,-1,-1,-1,-1,-1,-1,-1,-1,-1,-1,-1,-1,-1,-1,-1,-1,-1,-1,-1,-1,-1],"split_conditions":[1E0,3.2E1,2.6883E4,2.052E3,1.23E2,8.08E3,1.23E2,2.4E1,5.872947E1,2.92E4,1.39E2,8.6334264E7,9.292E3,9.490727E0,8.58E2,4.15E2,2.3E2,3.881887E1,4.02E2,8.1709856E5,1.9154546E-1,2.102528E5,3.1088E4,2.3213444E-2,1.7E1,4E0,1.563E3,2.53E2,2.25E2,1.970673E-1,9.8941796E-2,2.4E1,7.07E2,4.761905E3,3.12E2,1E0,1.23E2,3E0,3.2882E4,1E0,3.1E7,1.8694936E-1,1.2E7,2E6,2.00304E5,1.9719912E-1,3.2E1,-5.6254964E-2,1.950342E-1,-5.6972742E-2,1.3762608E-1,1E0,2.0081833E2,6.43E2,3E0,5.3E1,2.92E4,1.8943487E-1,1.9631177E-1,4.0308185E-2,1.9496256E-1,1.3931835E-1,1.5152131E-1,1.0663327E-1,1.3883698E-1,1.958838E-1,1.7454158E-1,-2.6041081E-2,1.9093037E-1,1.8982577E-1,-4.652308E-2,-5.478338E-2,2.7410623E-1,-5.6558687E-2,1.4695892E-1,1.8758185E-1,1.3161826E-2,1.16581276E-1,7.678699E-2,1.958009E-1,1.4083476E-1,2.0805426E-1,9.985226E-2,1.9299674E-1,2.3005796E-5,1.6197734E-1,1.9586523E-1,8.738672E-2,-5.6390494E-2,-5.6964397E-2,5.7267196E-2,-4.1135814E-2,1.7847304E-1,1.835237E-1,-5.356723E-2,-5.680585E-3,1.9331862E-1],"split_indices":[8,70,67,67,0,0,0,70,38,67,0,23,0,21,11,26,18,38,21,19,0,22,67,38,1,4,68,68,68,0,0,20,3,39,21,47,0,53,67,32,27,0,20,21,23,0,70,0,0,0,0,49,15,8,5,0,67,0,0,0,0,0,0,0,0,0,0,0,0,0,0,0,0,0,0,0,0,0,0,0,0,0,0,0,0,0,0,0,0,0,0,0,0,0,0,0,0],"split_type":[0,0,0,0,0,0,0,0,0,0,0,0,0,0,0,0,0,0,0,0,0,0,0,0,0,0,0,0,0,0,0,0,0,0,0,0,0,0,0,0,0,0,0,0,0,0,0,0,0,0,0,0,0,0,0,0,0,0,0,0,0,0,0,0,0,0,0,0,0,0,0,0,0,0,0,0,0,0,0,0,0,0,0,0,0,0,0,0,0,0,0,0,0,0,0,0,0],"sum_hessian":[5.799975E5,9.0621234E4,4.8937625E5,7.0175164E4,2.0446068E4,4.6711406E5,2.2262213E4,3.9529562E4,3.0645604E4,1.9218967E4,1.2271012E3,4.4093094E5,2.6183125E4,6.6812896E3,1.5580924E4,3.681656E4,2.7130015E3,1.325414E4,1.7391465E4,1.9149475E4,6.949269E1,1.0644103E2,1.1206602E3,4.408168E5,1.1411321E2,2.9647307E3,2.3218395E4,6.5282095E3,1.5308018E2,1.557781E4,3.1142025E0,2.647229E4,1.03442705E4,1.7124154E3,1.0005862E3,1.3029625E4,2.2451477E2,3.2725146E3,1.411895E4,1.910793E4,4.154424E1,6.008072E0,1.0043296E2,1.0395709E3,8.108916E1,3.007066E5,1.401102E5,7.3211296E1,4.0901917E1,2.9624695E3,2.2614076E0,2.3130572E4,8.78209E1,6.518872E3,9.337503E0,4.6885246E1,1.0619493E2,5.089514E3,2.1382773E4,6.618388E2,9.682432E3,1.979584E2,1.514457E3,7.995161E2,2.0107005E2,1.2544531E4,4.8509412E2,7.325418E1,1.5126059E2,3.2587275E3,1.3787012E1,1.4048798E4,7.015165E1,1.9097719E4,1.02109375E1,3.4802074E1,6.7421618E0,5.6558174E1,4.3874786E1,1.0252623E3,1.4308656E1,6.967096E0,7.412206E1,1.3978008E5,3.3013635E2,2.1287054E2,2.2917703E4,7.87198E0,7.994891E1,6.4982935E3,2.0578503E1,2.3054745E0,7.032029E0,3.300703E0,4.3584545E1,7.5732803E0,9.862165E1],"tree_param":{"num_deleted":"0","num_feature":"79","num_nodes":"97","size_leaf_vector":"1"}},{"base_weights":[-3.663801E-1,-5.2821815E-1,5.280291E-1,-5.283345E-2,-5.023649E-1,2.562885E0,-5.034653E-1,-5.1848316E-1,4.291736E-1,-5.2205473E-2,2.590603E0,-5.281778E-1,1.2072092E0,-4.3280867E-1,-5.274407E-2,-4.7246214E-2,2.713671E-1,2.6084566E0,-4.9862933E-1,-5.2835174E-2,5.912605E-1,-4.8005673E-1,2.6007986E0,-5.20414E-2,1.7975548E-1,2.782816E-1,2.5988173E-1,-5.1779516E-2,8.685029E-3,-2.8429285E-2,1.225416E-1,4.4716993E-1,-5.23757E-2,2.6259077E-1,-2.872605E-2,2.197471E-1,-4.162931E-2],"categories":[],"categories_nodes":[],"categories_segments":[],"categories_sizes":[],"default_left":[0,0,0,0,0,0,0,0,0,0,0,0,0,0,0,0,0,0,0,0,0,0,0,0,0,0,0,0,0,0,0,0,0,0,0,0,0],"id":31,"left_children":[1,3,5,-1,7,9,11,13,15,-1,17,19,21,23,-1,-1,-1,25,27,-1,29,31,33,-1,-1,-1,-1,-1,-1,-1,-1,35,-1,-1,-1,-1,-1],"loss_changes":[2.4769752E4,1.6796875E-1,5.5034363E4,0E0,1.0273636E1,7.555469E2,7.362344E2,2.7705383E-1,2.586129E1,0E0,4.834414E2,3.6523438E0,5.8459656E2,1.4203136E1,0E0,0E0,0E0,7.375E0,6.180382E-1,0E0,2.0899153E0,4.8155994E0,1.0618408E1,0E0,0E0,0E0,0E0,0E0,0E0,0E0,0E0,9.421031E0,0E0,0E0,0E0,0E0,0E0],"parents":[2147483647,0,0,1,1,2,2,4,4,5,5,6,6,7,7,8,8,10,10,11,11,12,12,13,13,17,17,18,18,20,20,21,21,22,22,31,31],"right_children":[2,4,6,-1,8,10,12,14,16,-1,18,20,22,24,-1,-1,-1,26,28,-1,30,32,34,-1,-1,-1,-1,-1,-1,-1,-1,36,-1,-1,-1,-1,-1],"split_conditions":[8.08E3,3E1,9.292E3,-5.283345E-2,2.3241695E6,1.94E2,2E0,2.1E1,2.87E7,-5.2205473E-2,6.8568E4,2.84316E5,1.41E2,5.1389705E6,-5.274407E-2,-4.7246214E-2,2.713671E-1,2.57E2,2.4E1,-5.2835174E-2,5.082E4,1.0333333E1,1.48E2,-5.20414E-2,1.7975548E-1,2.782816E-1,2.5988173E-1,-5.1779516E-2,8.685029E-3,-2.8429285E-2,1.225416E-1,8.290248E3,-5.23757E-2,2.6259077E-1,-2.872605E-2,2.197471E-1,-4.162931E-2],"split_indices":[0,63,0,0,18,22,69,0,78,0,22,31,14,24,0,0,0,67,70,0,0,10,6,0,0,0,0,0,0,0,0,24,0,0,0,0,0],"split_type":[0,0,0,0,0,0,0,0,0,0,0,0,0,0,0,0,0,0,0,0,0,0,0,0,0,0,0,0,0,0,0,0,0,0,0,0,0],"sum_hessian":[1.7111861E5,1.4490019E5,2.6218426E4,1.4423178E5,6.684142E2,8.819157E3,1.7399268E4,6.574813E2,1.093289E1,7.8375206E1,8.740782E3,1.7152178E4,2.4709009E2,6.690291E1,5.905784E2,8.407745E0,2.5251453E0,8.690712E3,5.0070236E1,1.7150041E4,2.1365674E0,1.12064865E2,1.3502522E2,6.511207E1,1.7908359E0,4.4021332E2,8.250499E3,4.859507E1,1.4751663E0,1.1292101E0,1.0073572E0,4.6283503E0,1.07436516E2,1.339514E2,1.0738149E0,1.0186082E0,3.6097422E0],"tree_param":{"num_deleted":"0","num_feature":"79","num_nodes":"37","size_leaf_vector":"1"}},{"base_weights":[-5.2749056E-1,-5.2767307E-2,-4.0531167E-1,-4.7652814E-1,2.818786E-1,-3.1860745E-1,-5.250904E-2,-2.3870356E-1,-4.9780533E-2,-1.6491318E-1,-2.6008183E-1,-4.235565E-2,8.379246E-4,-3.1836898E-4,-3.4086898E-2],"categories":[],"categories_nodes":[],"categories_segments":[],"categories_sizes":[],"default_left":[0,0,0,0,0,0,0,0,0,0,0,0,0,0,0],"id":32,"left_children":[1,-1,3,5,-1,7,-1,9,-1,11,13,-1,-1,-1,-1],"loss_changes":[3.40625E0,0E0,5.7976055E1,1.6899338E0,0E0,7.331214E-1,0E0,2.5055408E-2,0E0,5.597006E-1,6.5606046E-1,0E0,0E0,0E0,0E0],"parents":[2147483647,0,0,2,2,3,3,5,5,7,7,9,9,10,10],"right_children":[2,-1,4,6,-1,8,-1,10,-1,12,14,-1,-1,-1,-1],"split_conditions":[3.15E2,-5.2767307E-2,6.9284E4,3.6621117E1,2.818786E-1,4.2E7,-5.250904E-2,4.00025E6,-4.9780533E-2,2.136981E7,2.136981E7,-4.235565E-2,8.379246E-4,-3.1836898E-4,-3.4086898E-2],"split_indices":[55,0,66,16,0,25,0,71,0,75,75,0,0,0,0],"split_type":[0,0,0,0,0,0,0,0,0,0,0,0,0,0,0],"sum_hessian":[1.6245831E5,1.6221267E5,2.456492E2,2.4117415E2,4.47505E0,5.8499405E1,1.8267474E2,4.2071774E1,1.642763E1,1.1408302E1,3.0663471E1,3.9976048E0,7.4106975E0,7.584533E0,2.3078938E1],"tree_param":{"num_deleted":"0","num_feature":"79","num_nodes":"15","size_leaf_vector":"1"}},{"base_weights":[-5.277889E-1],"categories":[],"categories_nodes":[],"categories_segments":[],"categories_sizes":[],"default_left":[0],"id":33,"left_children":[-1],"loss_changes":[0E0],"parents":[2147483647],"right_children":[-1],"split_conditions":[-5.277889E-2],"split_indices":[0],"split_type":[0],"sum_hessian":[1.6244547E5],"tree_param":{"num_deleted":"0","num_feature":"79","num_nodes":"1","size_leaf_vector":"1"}},{"base_weights":[-1.6568995E-1,-5.291381E-2,1.8274251E0,2.576568E0,-5.2908033E-2,1.05832756E-1,2.5837014E0,2.8281744E0,-5.191653E-2,2.586479E0,-5.031691E-2,7.025894E-2,2.9637536E-1,-3.212921E-2,2.5867003E-1],"categories":[],"categories_nodes":[],"categories_segments":[],"categories_sizes":[],"default_left":[0,0,0,0,0,0,0,0,0,0,0,0,0,0,0],"id":34,"left_children":[1,-1,3,5,-1,7,9,11,-1,13,-1,-1,-1,-1,-1],"loss_changes":[1.327825E5,0E0,4.9908516E4,3.7779688E2,0E0,1.0831592E2,1.846875E2,1.3414459E0,0E0,1.459375E1,0E0,0E0,0E0,0E0,0E0],"parents":[2147483647,0,0,2,2,3,3,5,5,6,6,7,7,9,9],"right_children":[2,-1,4,6,-1,8,10,12,-1,14,-1,-1,-1,-1,-1],"split_conditions":[3.2738E4,-5.291381E-2,1.23E2,3.05E2,-5.2908033E-2,3.2882E4,8.1908E4,3E0,-5.191653E-2,5.3E1,-5.031691E-2,7.025894E-2,2.9637536E-1,-3.212921E-2,2.5867003E-1],"split_indices":[67,0,0,3,0,67,3,25,0,0,0,0,0,0,0],"split_type":[0,0,0,0,0,0,0,0,0,0,0,0,0,0,0],"sum_hessian":[1.8329919E5,1.5502994E5,2.8269252E4,2.1450088E4,6.819164E3,6.1797684E1,2.1388291E4,1.0880358E1,5.0917328E1,2.1369225E4,1.906622E1,1.0230656E0,9.857292E0,1.5156523E0,2.1367709E4],"tree_param":{"num_deleted":"0","num_feature":"79","num_nodes":"15","size_leaf_vector":"1"}},{"base_weights":[-5.2673745E-1,-5.277198E-1,1.2165594E0,-5.2784134E-2,-2.3594753E-1,-5.1643796E-2,2.9024646E-1,-5.197516E-2,2.9605412E-1],"categories":[],"categories_nodes":[],"categories_segments":[],"categories_sizes":[],"default_left":[0,0,0,0,0,0,0,0,0],"id":35,"left_children":[1,3,5,-1,7,-1,-1,-1,-1],"loss_changes":[2.7892188E2,5.6328125E0,2.6975824E2,0E0,6.452239E1,0E0,0E0,0E0,0E0],"parents":[2147483647,0,0,1,1,2,2,4,4],"right_children":[2,4,6,-1,8,-1,-1,-1,-1],"split_conditions":[1.2E8,6.4898E4,4.333E3,-5.2784134E-2,2.1E1,-5.1643796E-2,2.9024646E-1,-5.197516E-2,2.9605412E-1],"split_indices":[22,4,4,0,0,0,0,0,0],"split_type":[0,0,0,0,0,0,0,0,0],"sum_hessian":[1.6249494E5,1.6240412E5,9.081714E1,1.6233569E5,6.84282E1,4.5125168E1,4.5691975E1,6.361726E1,4.810936E0],"tree_param":{"num_deleted":"0","num_feature":"79","num_nodes":"9","size_leaf_vector":"1"}},{"base_weights":[-5.0382125E-1,-5.25246E-1,-2.659175E-1,-5.2717394E-1,-3.6822253E-1,-5.2794397E-2,1.1278871E0,-5.27904E-2,-5.129524E-1,2.5838072E0,-5.2764315E-2,2.2363334E0,-5.273598E-2,8.4191024E-2,-5.2727765E-1,-2.7002294E-2,2.6188305E-1,2.4215162E0,-4.6232483E-1,-5.2419838E-2,2.5984023E0,-5.2783635E-2,-3.7011936E-1,2.5541809E0,-5.1857766E-2,-5.212877E-2,1.8097822E-1,2.7040917E-1,-2.886479E-2,1.116513E-1,-5.0884653E-2,-5.143953E-2,2.5872204E-1],"categories":[],"categories_nodes":[],"categories_segments":[],"categories_sizes":[],"default_left":[0,0,0,0,0,0,0,0,0,0,0,0,0,0,0,0,0,0,0,0,0,0,0,0,0,0,0,0,0,0,0,0,0],"id":36,"left_children":[1,3,5,7,9,-1,11,-1,13,15,-1,17,-1,19,21,-1,-1,23,25,-1,27,-1,29,31,-1,-1,-1,-1,-1,-1,-1,-1,-1],"loss_changes":[8.34125E2,4.5257812E1,4.9398555E3,1.2695312E0,8.600073E2,0E0,3.9284075E3,0E0,6.230017E1,1.0067688E1,0E0,6.418784E2,0E0,2.634827E2,4.2871094E-1,0E0,0E0,4.6938037E2,1.2086086E1,0E0,1.1019257E1,0E0,6.4505005E0,1.1775586E2,0E0,0E0,0E0,0E0,0E0,0E0,0E0,0E0,0E0],"parents":[2147483647,0,0,1,1,2,2,3,3,4,4,6,6,8,8,9,9,11,11,13,13,14,14,17,17,18,18,20,20,22,22,23,23],"right_children":[2,4,6,8,10,-1,12,-1,14,16,-1,18,-1,20,22,-1,-1,24,26,-1,28,-1,30,32,-1,-1,-1,-1,-1,-1,-1,-1,-1],"split_conditions":[6.689771E5,5.546314E2,3.2E1,2.1888889E2,9.74E2,-5.2794397E-2,1.23E2,-5.27904E-2,2.2585715E2,9.2E1,-5.2764315E-2,3.55E7,-5.273598E-2,1.46E4,6.13911E5,-2.7002294E-2,2.6188305E-1,4E1,2.843E3,-5.2419838E-2,2.25E2,-5.2783635E-2,9.74E2,5.3E1,-5.1857766E-2,-5.212877E-2,1.8097822E-1,2.7040917E-1,-2.886479E-2,1.116513E-1,-5.0884653E-2,-5.143953E-2,2.5872204E-1],"split_indices":[18,15,70,14,7,0,0,0,14,37,0,30,0,67,18,0,0,70,6,0,68,0,7,0,0,0,0,0,0,0,0,0,0],"split_type":[0,0,0,0,0,0,0,0,0,0,0,0,0,0,0,0,0,0,0,0,0,0,0,0,0,0,0,0,0,0,0,0,0],"sum_hessian":[1.6367477E5,1.5015145E5,1.3523302E4,1.4832794E5,1.8235171E3,1.1383835E4,2.1394675E3,1.4105119E5,7.276749E3,9.265192E1,1.7308652E3,1.2811719E3,8.582957E2,1.7036327E2,7.1063857E3,1.0419253E0,9.160999E1,1.1989989E3,8.217294E1,1.3780797E2,3.2555298E1,7.0788633E3,2.7522465E1,1.1473584E3,5.164053E1,8.084551E1,1.3274298E0,3.1466734E1,1.0885632E0,1.7475071E0,2.5774958E1,1.2066907E1,1.1352915E3],"tree_param":{"num_deleted":"0","num_feature":"79","num_nodes":"33","size_leaf_vector":"1"}},{"base_weights":[-2.746036E-1,6.7107433E-1,-5.1154464E-1,-5.2861758E-2,2.5059118E0,-5.2872803E-2,-3.4267262E-1,2.587658E0,-5.193452E-1,-5.163736E-1,1.2973285E0,2.5929303E0,-5.0678916E-2,2.3806961E-1,-5.273984E-2,2.7471454E0,-5.2866865E-2,2.607322E0,-5.2763987E-2,2.5932235E-1,-3.3358704E-2,1.2032633E-1,-3.824671E-2,2.8854904E-1,-3.4045808E-2,1.7334074E-2,2.6109302E-1],"categories":[],"categories_nodes":[],"categories_segments":[],"categories_sizes":[],"default_left":[0,0,0,0,0,0,0,0,0,0,0,0,0,0,0,0,0,0,0,0,0,0,0,0,0,0,0],"id":37,"left_children":[1,3,5,-1,7,-1,9,11,13,15,17,19,-1,21,-1,23,-1,25,-1,-1,-1,-1,-1,-1,-1,-1,-1],"loss_changes":[3.954752E4,7.784081E4,4.0935938E2,0E0,3.4587188E3,0E0,3.7146353E3,2.2340625E2,2.3742294E0,4.745105E2,2.987111E3,1.25234375E1,0E0,3.1958654E0,0E0,1.9952728E1,0E0,5.9335938E0,0E0,0E0,0E0,0E0,0E0,0E0,0E0,0E0,0E0],"parents":[2147483647,0,0,1,1,2,2,4,4,6,6,7,7,8,8,9,9,10,10,11,11,13,13,15,15,17,17],"right_children":[2,4,6,-1,8,-1,10,12,14,16,18,20,-1,22,-1,24,-1,26,-1,-1,-1,-1,-1,-1,-1,-1,-1],"split_conditions":[1E0,3.2E1,4.061217E2,-5.2861758E-2,1.0594E5,-5.2872803E-2,2.4E1,1.23E2,1.786025E5,1E0,9.57E2,2.26E2,-5.0678916E-2,1E0,-5.273984E-2,1.23E2,-5.2866865E-2,1.16E2,-5.2763987E-2,2.5932235E-1,-3.3358704E-2,1.2032633E-1,-3.824671E-2,2.8854904E-1,-3.4045808E-2,1.7334074E-2,2.6109302E-1],"split_indices":[5,70,15,0,26,0,70,0,22,67,7,67,0,48,0,0,0,11,0,0,0,0,0,0,0,0,0],"split_type":[0,0,0,0,0,0,0,0,0,0,0,0,0,0,0,0,0,0,0,0,0,0,0,0,0,0,0],"sum_hessian":[1.7649378E5,3.5360664E4,1.4113311E5,2.1381363E4,1.3979299E4,1.28096695E5,1.3036418E4,1.3611641E4,3.6765836E2,1.17885205E4,1.2478977E3,1.358865E4,2.2990604E1,3.5675118E0,3.6409085E2,4.341095E1,1.1745109E4,7.261943E2,5.217034E2,1.3587403E4,1.2466114E0,1.0285767E0,2.538935E0,4.161192E1,1.7990274E0,1.1475E0,7.2504675E2],"tree_param":{"num_deleted":"0","num_feature":"79","num_nodes":"27","size_leaf_vector":"1"}},{"base_weights":[-4.4564763E-1,-5.1629615E-1,1.4651722E0,-5.2795446E-1,6.9517724E-2,-3.9406016E-1,1.735469E0,-5.280546E-2,-4.6395528E-1,1.7787025E0,-5.2783985E-2,-5.2117873E-2,-3.797599E-2,-5.272422E-2,1.9831187E0,2.0128949E0,-5.2606773E-2,1.2597314E0,2.336642E0,1.7146406E-1,2.353977E0,2.403984E-1,8.648404E-2,2.0010924E0,7.073477E-1,2.503574E-1,1.9360847E0,2.2369986E0,2.3820165E-1,1.7066135E-1,2.4313898E-1,1.6977903E-2,1.6360085E-1,1.2206157E-1,2.2959152E-1,2.0594592E-1,2.4345265E-1],"categories":[],"categories_nodes":[],"categories_segments":[],"categories_sizes":[],"default_left":[0,0,0,0,0,0,0,0,0,0,0,0,0,0,0,0,0,0,0,0,0,0,0,0,0,0,0,0,0,0,0,0,0,0,0,0,0],"id":38,"left_children":[1,3,5,7,9,11,13,-1,15,17,-1,-1,-1,-1,19,21,-1,23,25,-1,27,-1,-1,29,31,-1,33,35,-1,-1,-1,-1,-1,-1,-1,-1,-1],"loss_changes":[2.248427E4,1.0969375E3,2.985041E3,7.6953125E-1,3.2015916E3,1.1737671E0,2.9064658E3,0E0,4.0179367E1,2.322041E2,0E0,0E0,0E0,0E0,4.613047E2,8.0706596E-1,0E0,1.7177435E2,2.1243408E1,0E0,1.0986328E0,0E0,0E0,1.8661926E1,1.21477325E2,0E0,2.7882385E1,8.851807E0,0E0,0E0,0E0,0E0,0E0,0E0,0E0,0E0,0E0],"parents":[2147483647,0,0,1,1,2,2,3,3,4,4,5,5,6,6,8,8,9,9,14,14,15,15,17,17,18,18,20,20,23,23,24,24,26,26,27,27],"right_children":[2,4,6,8,10,12,14,-1,16,18,-1,-1,-1,-1,20,22,-1,24,26,-1,28,-1,-1,30,32,-1,34,36,-1,-1,-1,-1,-1,-1,-1,-1,-1],"split_conditions":[2E5,2.9411766E4,2E0,2.5E4,2.2E1,4E1,4E1,-5.280546E-2,2.2E1,2.0500435E1,-5.2783985E-2,-5.2117873E-2,-3.797599E-2,-5.272422E-2,3E0,3.6E1,-5.2606773E-2,1.6E1,2.4E1,1.7146406E-1,6.666667E5,2.403984E-1,8.648404E-2,1E1,2E1,2.503574E-1,2.8E1,5E0,2.3820165E-1,1.7066135E-1,2.4313898E-1,1.6977903E-2,1.6360085E-1,1.2206157E-1,2.2959152E-1,2.0594592E-1,2.4345265E-1],"split_indices":[39,39,18,39,0,36,36,0,0,21,0,0,0,0,3,21,0,21,20,0,17,0,0,20,20,0,18,3,0,0,0,0,0,0,0,0,0],"split_type":[0,0,0,0,0,0,0,0,0,0,0,0,0,0,0,0,0,0,0,0,0,0,0,0,0,0,0,0,0,0,0,0,0,0,0,0,0],"sum_hessian":[1.665477E5,1.606102E5,5.9374937E3,1.5747638E5,3.1338386E3,7.535756E2,5.183918E3,1.5722308E5,2.532878E2,8.1110187E2,2.3227368E3,7.26175E1,6.809581E2,5.1128766E2,4.6726304E3,5.428021E0,2.4785977E2,4.2191385E2,3.8918802E2,2.7137026E3,1.9589276E3,3.2327936E0,2.1952271E0,1.7902267E2,2.4289117E2,2.7099927E2,1.18188736E2,3.9438168E2,1.564546E3,1.09233536E2,6.978913E1,1.5458832E2,8.830286E1,4.1019592E1,7.716914E1,2.1371739E2,1.8066429E2],"tree_param":{"num_deleted":"0","num_feature":"79","num_nodes":"37","size_leaf_vector":"1"}},{"base_weights":[-5.2143663E-1,-5.2549905E-1,1.0275551E0,-5.2592343E-1,-3.6502108E-1,-5.2541047E-2,2.530369E0,-5.27238E-1,-4.902575E-1,-5.267359E-2,2.623776E0,-4.4156138E-2,2.6038678E0,-5.273331E-1,1.6460252E-1,-5.278207E-2,1.5942689E0,3.0757478E-1,-3.8889214E-2,2.619861E-1,-2.9280445E-2,-5.274151E-1,1.7820582E-2,-5.000323E-2,3.0636558E-1,2.267928E0,-5.075069E-2,-5.275163E-2,-4.6453413E-2,-5.0317105E-2,2.6628307E-1,-5.034935E-2,2.594708E-1],"categories":[],"categories_nodes":[],"categories_segments":[],"categories_sizes":[],"default_left":[0,0,0,0,0,0,0,0,0,0,0,0,0,0,0,0,0,0,0,0,0,0,0,0,0,0,0,0,0,0,0,0,0],"id":39,"left_children":[1,3,5,7,9,-1,11,13,15,-1,17,-1,19,21,23,-1,25,-1,-1,-1,-1,27,29,-1,-1,31,-1,-1,-1,-1,-1,-1,-1],"loss_changes":[1.0247422E3,1.0863281E1,9.957334E2,7.3359375E0,2.0992E2,0E0,4.848633E1,1.0355469E1,4.5261023E2,0E0,3.1579544E1,0E0,1.0570923E1,6.9921875E0,4.4334938E1,0E0,1.4610416E2,0E0,0E0,0E0,0E0,7.4609375E-1,3.5049576E1,0E0,0E0,7.168457E1,0E0,0E0,0E0,0E0,0E0,0E0,0E0],"parents":[2147483647,0,0,1,1,2,2,3,3,4,4,6,6,7,7,8,8,10,10,12,12,13,13,14,14,16,16,21,21,22,22,25,25],"right_children":[2,4,6,8,10,-1,12,14,16,-1,18,-1,20,22,24,-1,26,-1,-1,-1,-1,28,30,-1,-1,32,-1,-1,-1,-1,-1,-1,-1],"split_conditions":[3.4559584E7,1.4259259E6,5.6E1,4.36066E5,2.4E1,-5.2541047E-2,3.2E1,5.63E7,1.12E2,-5.267359E-2,1.23E2,-4.4156138E-2,2.843E3,8.876838E7,2.4E1,-5.278207E-2,3.484219E6,3.0757478E-1,-3.8889214E-2,2.619861E-1,-2.9280445E-2,4.00025E6,5.472286E7,-5.000323E-2,3.0636558E-1,5.3E1,-5.075069E-2,-5.275163E-2,-4.6453413E-2,-5.0317105E-2,2.6628307E-1,-5.034935E-2,2.594708E-1],"split_indices":[28,16,37,21,70,0,70,23,36,0,0,0,6,75,37,0,3,0,0,0,0,71,29,0,0,0,0,0,0,0,0,0,0],"split_type":[0,0,0,0,0,0,0,0,0,0,0,0,0,0,0,0,0,0,0,0,0,0,0,0,0,0,0,0,0,0,0,0,0],"sum_hessian":[1.6276094E5,1.6233586E5,4.250845E2,1.619054E5,4.304584E2,2.0937386E2,2.1571065E2,1.561368E5,5.7686035E3,4.091446E2,2.1313818E1,5.0851135E0,2.1062553E2,1.5611558E5,2.1214422E1,5.6672266E3,1.0137673E2,1.8515165E1,2.7986522E0,2.0956406E2,1.0614849E0,1.5609212E5,2.3462286E1,1.7931076E1,3.2833464E0,7.671051E1,2.4666222E1,1.5583398E5,2.581379E2,2.0277885E1,3.1843998E0,8.033932E0,6.8676575E1],"tree_param":{"num_deleted":"0","num_feature":"79","num_nodes":"33","size_leaf_vector":"1"}},{"base_weights":[-4.151135E-1,-5.1329607E-1,1.9080572E0,-5.272427E-1,2.3651989E-1,-5.2738298E-2,2.0942926E0,-5.280787E-1,-2.4766932E-1,1.9098803E0,-5.2787717E-2,2.2808526E0,1.1261362E0,-5.281475E-2,-4.832929E-1,-5.270287E-2,1.5025898E0,2.138315E0,9.397302E-1,2.5862193E-1,2.0893872E-1,1.7515148E-1,9.868293E-2,1.575397E0,-5.261732E-2,1.6196924E0,6.977669E-2,7.561815E-2,2.3889856E0,3.8021114E-1,2.3660884E0,7.559892E-2,2.0118582E-1,1.4107832E-1,2.065351E-1,-4.2867146E-2,2.4039331E-1,5.2236415E-2,2.1185853E-2,1.6466671E-1,2.5558797E-1],"categories":[],"categories_nodes":[],"categories_segments":[],"categories_sizes":[],"default_left":[0,0,0,0,0,0,0,0,0,0,0,0,0,0,0,0,0,0,0,0,0,0,0,0,0,0,0,0,0,0,0,0,0,0,0,0,0,0,0,0,0],"id":40,"left_children":[1,3,5,7,9,-1,11,13,15,17,-1,19,21,-1,23,-1,25,27,29,-1,-1,-1,-1,31,-1,33,-1,-1,35,37,39,-1,-1,-1,-1,-1,-1,-1,-1,-1,-1],"loss_changes":[3.8369227E4,1.6878633E3,3.0948613E3,3.690625E1,3.7715474E3,0E0,1.1419473E3,2.2265625E-1,2.3267468E2,2.0288281E2,0E0,3.0516797E2,8.763367E1,0E0,2.3257812E1,0E0,5.046341E0,2.5718994E2,1.4114902E2,0E0,0E0,0E0,0E0,4.226389E-1,0E0,2.3422546E0,0E0,0E0,2.766211E1,2.977312E0,2.6124268E0,0E0,0E0,0E0,0E0,0E0,0E0,0E0,0E0,0E0,0E0],"parents":[2147483647,0,0,1,1,2,2,3,3,4,4,6,6,7,7,8,8,9,9,11,11,12,12,14,14,16,16,17,17,18,18,23,23,25,25,28,28,29,29,30,30],"right_children":[2,4,6,8,10,-1,12,14,16,18,-1,20,22,-1,24,-1,26,28,30,-1,-1,-1,-1,32,-1,34,-1,-1,36,38,40,-1,-1,-1,-1,-1,-1,-1,-1,-1,-1],"split_conditions":[2.5E5,3.846154E4,4E1,2.9411766E4,2.2E1,-5.2738298E-2,3E0,2.5E4,4E1,2.0500435E1,-5.2787717E-2,2E0,6.666667E5,-5.281475E-2,2.2E1,-5.270287E-2,3.3E1,7E0,2.4E1,2.5862193E-1,2.0893872E-1,1.7515148E-1,9.868293E-2,3.6E1,-5.261732E-2,3.0837547E1,6.977669E-2,7.561815E-2,2.1E1,2.2E1,2.5E1,7.559892E-2,2.0118582E-1,1.4107832E-1,2.065351E-1,-4.2867146E-2,2.4039331E-1,5.2236415E-2,2.1185853E-2,1.6466671E-1,2.5558797E-1],"split_indices":[39,39,36,39,0,0,3,39,70,21,0,3,17,0,0,0,20,3,20,0,0,0,0,21,0,21,0,0,0,18,3,0,0,0,0,0,0,0,0,0,0],"split_type":[0,0,0,0,0,0,0,0,0,0,0,0,0,0,0,0,0,0,0,0,0,0,0,0,0,0,0,0,0,0,0,0,0,0,0,0,0,0,0,0,0],"sum_hessian":[1.6821083E5,1.6139086E5,6.8199697E3,1.5844408E5,2.9467793E3,4.843388E2,6.3356313E3,1.5797083E5,4.7324524E2,9.2353894E2,2.0232404E3,5.310889E3,1.0247421E3,1.5771777E5,2.5307344E2,4.0870984E2,6.45354E1,7.465498E2,1.7698918E2,2.0418492E3,3.2690398E3,1.8457445E2,8.401676E2,4.434467E0,2.4863898E2,5.545426E1,9.0811405E0,1.15228134E2,6.3132166E2,1.2803235E2,4.895683E1,2.4906442E0,1.9438224E0,4.0591827E1,1.48624325E1,3.18539E0,6.281362E2,6.827757E1,5.9754772E1,1.2239207E1,3.671762E1],"tree_param":{"num_deleted":"0","num_feature":"79","num_nodes":"41","size_leaf_vector":"1"}},{"base_weights":[-4.3167308E-1,-1.9548047E-1,-4.7097814E-1,-3.0497715E-1,2.5712496E-1,-5.111168E-1,-3.5924286E-1,-5.204323E-1,-2.2779714E-1,-2.8164536E-1,1.4094801E0,-2.6308006E-1,-5.215794E-1,-1.7726155E-1,-4.1448835E-1,-5.219892E-1,2.9769309E-2,-2.3147239E-1,1.7733574E0,-3.4519815E-1,4.834288E-1,1.506619E0,-1.7622963E-1,-2.3277244E-1,-5.080355E-1,-5.2523696E-1,-3.024822E-1,-3.536213E-1,5.1567864E-1,-3.568815E-1,-5.264257E-1,-5.2257544E-1,1.4019088E-1,-2.3360689E-1,7.566602E-1,-1.6118905E-2,-2.3546405E-1,1.8340288E-2,1.8373533E0,-3.5241085E-1,9.4925183E-1,7.008528E-1,-4.94362E-1,1.802564E0,1.2008028E0,-2.6271915E-1,4.860709E-1,-2.7882972E-1,-2.4151806E-2,4.0249564E-2,-5.122396E-1,-5.260585E-1,-3.1221431E-1,-5.066233E-1,4.676484E-1,-3.752167E-1,1.8956366E0,1.9812756E0,4.89585E-1,-3.598379E-1,2.1678987E0,-5.269318E-1,1.6766861E-1,-4.9036782E-2,-5.2786138E-2,7.0213735E-2,-3.7327796E-2,5.9521925E-2,-3.860083E-2,9.089008E-2,1.81633E-2,1.3339572E-2,-5.095565E-3,-2.229408E-2,-2.9204885E-2,1.9029552E-1,1.9927418E-2,-4.4802424E-2,-2.6445929E-2,1.8349545E-1,-4.54901E-2,1.2628113E-2,9.859597E-2,-5.15862E-2,-9.507309E-3,1.8243934E-1,3.00565E-2,-3.3594888E-2,1.2168872E-1,1.151515E-1,-3.0967837E-2,-3.877358E-2,8.529324E-2,-2.0144273E-2,-3.1398885E-2,-5.1805233E-3,1.2086382E-1,-3.9049458E-2,-5.2472897E-2,-5.2630693E-2,-3.554219E-2,-5.265742E-2,6.600156E-2,-5.096258E-2,1.1691202E-1,8.826394E-2,-5.6388234E-3,-5.2784532E-2,-1.4992247E-2,1.4770947E-1,2.4441898E-1,2.2616613E-1,1.0976819E-1,6.1016705E-2,3.4052145E-2,-2.8749976E-2,-4.4806182E-2,2.284925E-1,1.3163074E-2,-5.2754052E-2,1.0255811E-1],"categories":[],"categories_nodes":[],"categories_segments":[],"categories_sizes":[],"default_left":[0,0,0,0,0,0,0,0,0,0,0,0,0,0,0,0,0,0,0,0,0,0,0,0,0,0,0,0,0,0,0,0,0,0,0,0,0,0,0,0,0,0,0,0,0,0,0,0,0,0,0,0,0,0,0,0,0,0,0,0,0,0,0,0,0,0,0,0,0,0,0,0,0,0,0,0,0,0,0,0,0,0,0,0,0,0,0,0,0,0,0,0,0,0,0,0,0,0,0,0,0,0,0,0,0,0,0,0,0,0,0,0,0,0,0,0,0,0,0,0,0],"id":41,"left_children":[1,3,5,7,9,11,13,15,17,19,21,23,25,27,29,31,33,35,37,39,41,43,45,47,49,51,53,55,57,59,61,63,65,67,69,71,73,-1,75,77,79,81,83,85,87,89,91,93,95,-1,97,99,101,103,105,107,109,111,113,115,117,119,-1,-1,-1,-1,-1,-1,-1,-1,-1,-1,-1,-1,-1,-1,-1,-1,-1,-1,-1,-1,-1,-1,-1,-1,-1,-1,-1,-1,-1,-1,-1,-1,-1,-1,-1,-1,-1,-1,-1,-1,-1,-1,-1,-1,-1,-1,-1,-1,-1,-1,-1,-1,-1,-1,-1,-1,-1,-1,-1],"loss_changes":[1.5488672E3,1.1798744E3,6.413574E2,3.1864062E2,2.8798677E3,2.7296484E2,3.8003955E2,4.345703E0,1.0422406E2,1.538712E2,2.2788867E2,3.1518433E1,8.0759766E1,1.076409E3,1.8683301E2,2.0300293E0,3.088647E0,1.2108398E1,2.3076706E0,2.7590485E1,5.197888E1,1.23867676E2,5.0651298E0,3.644838E1,1.9990082E0,1.7216797E1,2.6127368E2,3.4172467E2,6.737186E1,1.4373047E2,1.1869141E1,5.987549E-1,1.7761043E0,1.7365319E0,2.0970249E-1,1.3479487E0,9.737854E0,0E0,2.293869E0,2.4301025E1,2.1289225E1,3.2491005E1,3.3526707E-1,2.2590088E1,1.7410889E1,5.462844E0,3.6347477E0,8.39267E0,2.3490887E1,0E0,5.046234E-1,4.0078125E0,8.037961E1,7.2018127E0,7.5821304E1,2.3906494E2,1.1756195E1,5.1807556E0,3.1375366E1,1.2195801E2,5.070793E0,9.849609E0,0E0,0E0,0E0,0E0,0E0,0E0,0E0,0E0,0E0,0E0,0E0,0E0,0E0,0E0,0E0,0E0,0E0,0E0,0E0,0E0,0E0,0E0,0E0,0E0,0E0,0E0,0E0,0E0,0E0,0E0,0E0,0E0,0E0,0E0,0E0,0E0,0E0,0E0,0E0,0E0,0E0,0E0,0E0,0E0,0E0,0E0,0E0,0E0,0E0,0E0,0E0,0E0,0E0,0E0,0E0,0E0,0E0,0E0,0E0],"parents":[2147483647,0,0,1,1,2,2,3,3,4,4,5,5,6,6,7,7,8,8,9,9,10,10,11,11,12,12,13,13,14,14,15,15,16,16,17,17,18,18,19,19,20,20,21,21,22,22,23,23,24,24,25,25,26,26,27,27,28,28,29,29,30,30,31,31,32,32,33,33,34,34,35,35,36,36,38,38,39,39,40,40,41,41,42,42,43,43,44,44,45,45,46,46,47,47,48,48,50,50,51,51,52,52,53,53,54,54,55,55,56,56,57,57,58,58,59,59,60,60,61,61],"right_children":[2,4,6,8,10,12,14,16,18,20,22,24,26,28,30,32,34,36,38,40,42,44,46,48,50,52,54,56,58,60,62,64,66,68,70,72,74,-1,76,78,80,82,84,86,88,90,92,94,96,-1,98,100,102,104,106,108,110,112,114,116,118,120,-1,-1,-1,-1,-1,-1,-1,-1,-1,-1,-1,-1,-1,-1,-1,-1,-1,-1,-1,-1,-1,-1,-1,-1,-1,-1,-1,-1,-1,-1,-1,-1,-1,-1,-1,-1,-1,-1,-1,-1,-1,-1,-1,-1,-1,-1,-1,-1,-1,-1,-1,-1,-1,-1,-1,-1,-1,-1,-1],"split_conditions":[1E0,8E1,1.23E2,1.93E2,1E0,0E0,4.45E2,2.92E4,2.4E1,5.3433E4,1.403E3,5.6317736E7,2.8515908E6,1E0,